[  2.62371004e-02  -7.93705434e-02  -4.28867154e-02  -1.43186748e-03
  -8.01597536e-03  -3.49898078e-02   4.30931970e-02  -1.85044631e-02
   5.18693104e-02  -5.50623536e-02   5.85986748e-02  -4.41061258e-02
   6.83540180e-02  -4.70453762e-02  -1.82342976e-02   1.01816012e-02
  -4.43084612e-02  -7.76155740e-02   1.03583485e-02   3.32889855e-02
   5.48109189e-02   7.86305293e-02  -3.52680273e-02   1.31107271e-02
  -7.75663406e-02   5.06251529e-02  -4.03192639e-02   2.41871849e-02
   4.99608442e-02   4.31758836e-02  -4.82308343e-02  -4.17424925e-02
  -5.77899031e-02  -4.78534773e-02  -4.44475859e-02   3.21342051e-02
  -5.52015416e-02  -8.37380216e-02  -5.71373552e-02  -8.11200291e-02
   1.79795548e-02  -6.21591397e-02   5.30520380e-02  -3.38944905e-02
   1.03729451e-02   8.17907136e-03   8.06680545e-02   6.60885423e-02
   5.91957048e-02  -7.26983091e-03   1.89781445e-03   2.67302506e-02
  -5.19478843e-02  -5.53348735e-02  -6.12774044e-02   5.94765469e-02
   6.80741295e-02   5.95943630e-03  -7.33681023e-04  -7.47696459e-02
   6.68242900e-03  -4.97950725e-02  -3.32990587e-02   1.16374511e-02
   3.56804281e-02   7.80994669e-02   8.87858346e-02  -8.18280503e-02
  -8.34299624e-02  -6.20204397e-03   2.49019302e-02  -3.09341662e-02
  -8.55562389e-02  -8.26460198e-02  -4.66522388e-02  -7.16330260e-02
  -6.93299025e-02  -7.61814564e-02  -2.15314422e-02  -6.18094914e-02
  -4.27133702e-02   7.28683174e-02  -3.79840657e-02  -2.70941220e-02
   8.34760442e-02   2.21026316e-02   1.96300242e-02  -6.17626719e-02
  -5.88787794e-02  -5.02179526e-02   4.47311550e-02  -3.46252061e-02
   3.75778624e-03   9.28007364e-02  -5.99088669e-02   8.98386538e-02
  -7.83987716e-02  -3.72883305e-02  -4.66200188e-02  -1.88062843e-02
   1.83026232e-02  -1.32568389e-01  -1.11478632e-02   8.68071429e-03
  -1.05794832e-01  -1.87230774e-03   3.66948172e-02   3.43953073e-02
  -7.84004629e-02   3.35583724e-02  -1.15392888e-02   1.17897242e-02
  -5.74262068e-02  -8.04519579e-02   8.02011713e-02   3.97487693e-02
   2.26419251e-02   3.99835482e-02   4.05035429e-02   1.05351567e-01
  -6.21803701e-02  -5.26117487e-03   1.06730089e-01   9.42495186e-03
  -2.82144994e-02  -1.41183123e-01  -7.08662346e-02  -8.01976323e-02
  -4.44493853e-02  -2.94486061e-02  -1.68006832e-03  -5.57650533e-03
   1.15338713e-01   8.60641617e-03  -1.08335756e-01  -5.90830259e-02
   1.20657412e-02   1.57192890e-02  -6.94796629e-03  -1.65370554e-02
   4.90179434e-02   7.73846433e-02   3.66793908e-02  -1.00479051e-02
   4.39487807e-02  -5.02261631e-02  -1.15168681e-02  -1.40409498e-03
   1.02724330e-02   5.02538085e-02  -4.92267869e-02   2.84150569e-03
  -7.29502887e-02  -2.96028554e-02   1.20261991e-02  -9.31724459e-02
   3.65649797e-02  -8.64177868e-02   1.50942467e-02  -2.37214230e-02
   8.56526121e-02   2.18624011e-01   7.59104937e-02  -8.82762522e-02
   6.88356981e-02  -3.01960260e-02  -4.49336320e-02   3.92795987e-02
  -5.71496524e-02   6.32379502e-02   4.77435254e-02  -4.31082547e-02
   5.43024503e-02   1.16072949e-02   1.27163693e-01   7.43850470e-02
   1.18899614e-01   2.02622265e-01   2.11571842e-01   2.38786023e-02
  -1.91524699e-02  -8.51711333e-02  -3.29108573e-02  -6.86137080e-02
   1.33117009e-03  -2.30917800e-02  -1.02942571e-01  -3.63242030e-02
   1.37308696e-02   6.61097541e-02   1.07565336e-01  -6.52437061e-02
  -4.61633392e-02  -6.40563890e-02  -6.02274910e-02  -3.61484140e-02
  -2.02224888e-02   8.00839886e-02  -1.85797121e-02  -5.81572652e-02
   3.40328775e-02   4.31606919e-03   1.63146079e-01   1.00956820e-01
   1.34073019e-01   1.78083077e-01   1.27575323e-01  -1.97153445e-02
  -8.83613229e-02   8.93470570e-02  -1.79054871e-01  -1.17535152e-01
  -1.09506927e-01  -1.17011137e-01  -6.79378957e-02  -5.28590605e-02
   4.72752787e-02   1.51691705e-01   1.42059833e-01   4.37155478e-02
  -7.51435086e-02  -8.12543109e-02  -1.71314366e-02  -3.57943885e-02
   4.88492288e-02   7.00810133e-03   3.23238298e-02   3.76622677e-02
   7.66073093e-02   1.08561009e-01   2.27906168e-01   2.58497208e-01
   1.77870050e-01   1.86206952e-01   1.78596571e-01   1.27917483e-01
   3.83667536e-02   9.17968079e-02   8.55746046e-02  -5.50716780e-02
  -9.43325013e-02  -1.10382229e-01   2.58061811e-02   9.58645903e-03
  -3.15348059e-02   2.28880197e-02   1.03165478e-01   4.35283519e-02
  -8.55994001e-02  -3.86872105e-02   8.26790035e-02  -5.40484674e-02
   1.34196738e-03   2.26414949e-02  -1.00350464e-02   2.24635427e-04
   1.10784126e-02   9.18800086e-02   1.78501263e-01   4.66655344e-02
   1.12683445e-01   1.23414092e-01   8.14402699e-02   1.12031959e-01
   3.10518742e-01   3.39410186e-01   1.12898201e-01  -9.74849761e-02
  -9.46836323e-02   9.69538838e-03   4.65658270e-02  -1.09172456e-01
   3.86186950e-02   9.63676497e-02   9.05485749e-02   1.30942956e-01
  -2.35072784e-02  -7.23540410e-02   1.51218986e-03  -2.88523715e-02
  -6.43936023e-02   2.72536855e-02   4.85791005e-02  -1.77730359e-02
   1.14686117e-01   1.27297208e-01   1.51927546e-01   9.33849290e-02
   2.24990249e-01   6.23792559e-02   3.01160544e-01   2.81021595e-01
   1.74129635e-01   1.37802377e-01  -1.40262721e-02  -5.95698804e-02
  -6.58817664e-02  -1.90474801e-02  -8.51573655e-04   6.59895837e-02
   8.22763517e-02  -1.69667788e-02  -7.39415661e-02  -2.94960067e-02
  -6.78459555e-02  -8.70128907e-03   1.45366685e-02  -6.00941330e-02
   4.71413359e-02  -6.00202046e-02  -5.46332914e-03   6.60948083e-02
  -8.87021236e-03   7.10975602e-02   8.68466794e-02   1.15329407e-01
   1.51272476e-01   2.46743932e-01   1.89430043e-01   1.90591946e-01
  -6.34638965e-02  -1.27402008e-01  -1.75746173e-01  -1.69968039e-01
  -9.70876403e-03   1.92388017e-02  -1.06953017e-01   3.54336537e-02
   1.50205210e-01  -7.84490705e-02  -2.40694955e-02  -1.16839133e-01
   1.91265214e-02   5.38603589e-02   1.87002085e-02   6.88723400e-02
  -1.85432900e-02  -7.96282589e-02  -9.19184182e-03  -3.23957168e-02
  -7.71397874e-02  -1.21829852e-01  -1.03972703e-01   4.76601832e-02
  -4.62941043e-02  -1.94274575e-01  -1.98057353e-01  -3.87669921e-01
  -4.19901013e-01  -2.74007648e-01  -2.56800771e-01  -5.51936850e-02
   3.56814489e-02   3.55440676e-02   5.78316068e-03   1.25597954e-01
  -2.72797234e-02  -9.10007302e-03  -1.41062185e-01  -1.42909706e-01
  -4.06499989e-02   1.01621903e-01   1.04461290e-01  -4.42217942e-03
   2.98601855e-02   8.31676722e-02   1.31737953e-02  -8.06245655e-02
  -1.82851791e-01  -2.71908551e-01  -3.47432494e-01  -3.72100741e-01
  -2.94792265e-01  -4.52485770e-01  -3.66207033e-01  -4.23627645e-01
  -3.54526788e-01  -1.84674233e-01   3.08740623e-02  -4.44307439e-02
  -1.20064383e-02  -7.14141056e-02  -5.20234220e-02  -6.53796270e-02
  -1.89205091e-02  -2.50912774e-02  -6.90730512e-02  -1.45134464e-01
   1.01563275e-01   8.93773809e-02  -1.10874092e-03  -4.57519926e-02
  -5.55449724e-02   8.34936276e-02  -4.62312065e-02  -1.39435142e-01
  -1.90419897e-01  -3.01930636e-01  -4.37869251e-01  -4.14329231e-01
  -5.60085416e-01  -3.98032665e-01  -2.58733451e-01  -1.28036872e-01
   4.83941883e-02   7.53893377e-03   1.03596523e-01   1.23139709e-01
   3.18629034e-02   4.46754694e-02  -1.84125215e-01   1.32170611e-03
  -2.25913659e-01   1.25719793e-03   6.48287386e-02  -6.42180294e-02
  -6.60753576e-03   6.34776205e-02   7.96682462e-02   7.88767934e-02
   2.05902010e-02   8.01086128e-02   4.12546806e-02  -3.51449847e-02
  -2.32899591e-01  -2.30995253e-01  -3.70778322e-01  -2.66687334e-01
  -3.15832585e-01  -1.96958289e-01  -7.49113634e-02   1.82826281e-01
   1.84965208e-01   1.00601830e-01   1.23695172e-01   1.55923441e-01
  -2.16945391e-02   5.49465008e-02  -2.57601943e-02  -8.31708312e-03
   1.19401820e-01   5.97356670e-02   8.04775059e-02  -2.68952996e-02
   4.70016412e-02  -1.46389753e-02   4.15679328e-02  -3.48600000e-02
  -6.16436303e-02  -8.16074237e-02   7.19766170e-02  -6.83626756e-02
  -1.81365952e-01  -2.26716235e-01  -2.96641439e-01  -1.87466443e-01
  -2.12888457e-02   7.76982978e-02   1.02704912e-01   3.21637005e-01
   2.12352976e-01   1.01780690e-01  -2.84528453e-02  -2.88796071e-02
   1.12885743e-01   2.17042059e-01   2.07189873e-01   1.82410985e-01
   4.98738848e-02   2.91060328e-01   1.25925615e-01   1.32576525e-01
   2.67347638e-02   6.65435493e-02   9.49258357e-02  -6.73869550e-02
  -1.81267485e-02   1.55957192e-02   6.65585138e-03   6.30141422e-02
  -1.00184247e-01  -9.74857807e-02  -3.85176279e-02  -1.02995589e-01
   8.03981200e-02   6.66547120e-02   7.45053813e-02   1.27837256e-01
   1.81986690e-01   2.01938912e-01   8.07991996e-02  -3.18917073e-02
  -4.42987978e-02   2.90704817e-02   3.43969688e-02   3.67252566e-02
  -6.02040514e-02   8.12472850e-02   3.42048295e-02  -2.80650929e-02
  -2.28506047e-02  -2.61233328e-03   7.25163966e-02  -9.71336791e-04
  -9.87454411e-03  -1.67599246e-02  -6.64855167e-02   6.15282310e-03
   1.33847162e-01   2.73259310e-03   4.11057733e-02   1.97128519e-01
   1.17208496e-01   9.77651998e-02   1.43373951e-01   7.47736245e-02
   2.22833306e-02   5.36866160e-03   6.85820580e-02  -1.50565151e-02
  -8.49827975e-02  -1.30174130e-01  -5.62053546e-02  -1.28085651e-02
  -4.94355597e-02  -9.12707448e-02  -1.15245387e-01  -3.36601324e-02
   4.12815809e-02   5.59206791e-02   4.85829972e-02   3.52527760e-02
  -2.36155018e-02   7.08171204e-02   7.32351914e-02   1.31800612e-02
   1.12540927e-02   1.52912959e-01   2.98105273e-02   8.52801725e-02
   2.01541498e-01   2.96549588e-01   2.47038245e-01   6.00927137e-02
  -3.52049395e-02   2.46386938e-02   8.55053663e-02   1.21702673e-02
   1.87569056e-02  -4.14665677e-02  -1.07826047e-01  -9.42433774e-02
  -1.22097313e-01  -1.74738377e-01  -7.92878494e-02   7.14437887e-02
   2.92979032e-02   3.22616100e-02   3.69844101e-02   5.76065518e-02
  -5.73917925e-02  -1.68589670e-02   2.43481249e-02   1.14973612e-01
   8.22813809e-02   4.01989594e-02   9.77740213e-02   2.44544148e-01
   2.59747624e-01   2.63143629e-01   6.74206838e-02  -1.36928055e-02
  -1.31854668e-01  -1.33877113e-01  -8.49928427e-03   6.29593879e-02
  -7.33897761e-02  -1.71796724e-01  -9.96511877e-02  -3.39096040e-02
  -1.15937583e-01  -1.50377288e-01  -9.55549255e-02   5.90643026e-02
   4.12405245e-02  -1.51758501e-03  -6.52516335e-02  -6.29258826e-02
   3.15419063e-02   4.59689926e-03  -6.81762630e-03   8.99536386e-02
   5.43539003e-02  -8.85774642e-02  -4.19397987e-02   1.72086820e-01
   1.58128634e-01   1.81897536e-01   1.51041364e-02   2.92525850e-02
   3.99542153e-02  -8.60527307e-02  -7.30295554e-02   6.28665090e-02
   7.62835070e-02  -2.40753386e-02  -1.23758420e-01   6.96583018e-02
  -1.22636683e-01  -1.64435387e-01   7.24595487e-02   8.73493031e-02
   7.96434060e-02   2.85013076e-02   3.72042134e-02   7.84734916e-03
  -2.82567814e-02  -5.15814610e-02   8.65025371e-02  -8.00810531e-02
   2.11842116e-02  -6.44117817e-02   3.39622423e-02   3.13998759e-01
   1.56432465e-01   1.61298379e-01   1.80262938e-01   6.53049424e-02
   8.68518651e-02   1.12260822e-02  -8.41274410e-02  -1.02231845e-01
   4.72088344e-02  -1.23716360e-02  -5.74809648e-02   7.05688223e-02
  -3.28349769e-02  -2.25338601e-02   1.39472336e-01   1.47127450e-01
   3.97423133e-02   5.50201610e-02  -2.41342504e-02   3.10463030e-02
  -3.10790464e-02  -7.19132945e-02  -4.68143076e-02  -3.17990221e-03
  -7.64318854e-02   3.71931680e-03   1.20153442e-01   1.10622369e-01
   5.20626977e-02   9.92701128e-02   2.44125053e-02   1.57915875e-01
   5.07215858e-02  -6.13217950e-02  -1.38024706e-02   1.66346673e-02
   1.20498821e-01  -4.57604714e-02   5.27002774e-02   2.67723855e-02
   6.77678064e-02  -9.00177285e-03  -1.35789886e-02   1.96859743e-02
  -7.88245350e-02  -7.75121972e-02   1.59892514e-02   7.58982077e-02
  -4.41991538e-03  -5.63411862e-02  -2.09403820e-02  -5.27919345e-02
  -5.49471602e-02  -3.25572677e-02   9.08510983e-02   1.01987543e-02
  -1.28819317e-01  -8.57656747e-02  -1.71235368e-01  -9.02933180e-02
  -7.79019948e-03  -8.63567889e-02  -5.19979969e-02   7.11534917e-02
   4.87776473e-02   5.18402457e-02  -8.41215402e-02   1.16661536e-02
  -4.15975936e-02  -4.15464789e-02  -3.67977396e-02  -3.44313905e-02
   5.98483011e-02   1.64191257e-02   6.90326244e-02   6.87277988e-02
   3.66608128e-02   5.76130226e-02  -4.95519042e-02   2.55748481e-02
   9.38126743e-02   8.29793364e-02   6.11551702e-02   3.09642404e-03
  -5.25847785e-02  -1.23289660e-01  -1.48558188e-02  -1.06298458e-03
  -3.20732482e-02  -3.99799272e-02   6.37087375e-02   1.33335158e-01
   5.53793088e-02   6.69402927e-02   8.15520957e-02  -2.38969959e-02
  -4.68603186e-02   3.43952775e-02  -8.43478888e-02  -4.15418576e-03
  -9.00409743e-02  -3.36841270e-02   4.69480604e-02  -3.44961397e-02
   3.68430689e-02  -6.60752952e-02  -3.64803784e-02   5.28174676e-02
  -5.27499840e-02  -9.41331685e-02  -8.52347240e-02  -1.03450299e-03
  -2.24439856e-02  -4.10301201e-02  -3.48499417e-02   2.29125507e-02
  -3.21308039e-02   6.12674132e-02   3.91904004e-02   1.06144249e-02
  -2.10374650e-02   5.85690439e-02  -5.39866462e-03  -2.93921754e-02
   3.93654369e-02   1.12166051e-02  -2.18969714e-02  -4.41033132e-02
   3.61536480e-02  -1.15113361e-02   7.65629932e-02  -4.33317572e-03
   3.56139317e-02   2.39727199e-02   2.48242244e-02  -7.37822801e-02
   5.78737482e-02  -3.61616164e-02  -2.01566648e-02  -6.62535653e-02
   4.98848110e-02  -7.56524950e-02   3.59694920e-02  -8.16648379e-02
   2.43663732e-02   2.24620905e-02   1.45367021e-02   6.58846870e-02
   5.52960262e-02   7.83167630e-02  -3.07842940e-02   8.14227238e-02
   1.29301026e-02  -3.44608948e-02   1.64481555e-03   4.06004488e-02
   3.31409276e-03   5.31242117e-02   3.62488255e-02  -9.10773873e-03
   2.90250927e-02   4.06588614e-03   3.73874530e-02   1.86968595e-03
  -5.57594150e-02   6.17255643e-02   5.65093085e-02   8.18547830e-02
  -4.02493328e-02   4.56163958e-02   9.12807137e-03   6.17051795e-02
   6.43873662e-02   8.15627202e-02   6.48831949e-02   6.18352741e-03
  -7.68535286e-02   6.01797923e-02  -5.37629202e-02  -5.60413860e-02
   7.27321878e-02   3.04471627e-02   8.22511688e-02   1.92655399e-02
  -7.39821866e-02   5.11813536e-02  -6.63290620e-02  -2.41839737e-02
  -7.26580620e-03  -9.89340246e-04   7.03591183e-02  -1.65147334e-03
  -7.27789029e-02  -3.61269601e-02  -2.06210669e-02   2.76992097e-02
   3.03187445e-02  -4.75593433e-02   5.98063543e-02  -4.31923829e-02
   5.94992936e-02   1.35751469e-02  -4.02512886e-02   3.40260528e-02
   6.30595982e-02   2.43595466e-02   4.79370281e-02  -3.81123200e-02
  -2.74562333e-02  -3.35825719e-02   5.62053956e-02   3.37544791e-02
  -6.47530705e-03   6.19363114e-02   3.80785763e-03   8.06838945e-02
  -1.66258290e-02   6.82956800e-02   1.58417281e-02  -7.48452544e-03
   4.77985069e-02  -7.59539381e-02  -5.62449098e-02  -4.66530994e-02
  -7.48312473e-02   9.39642452e-03  -7.48625351e-03   5.42812012e-02
  -3.87549624e-02  -3.26091237e-03   4.80449945e-02  -4.63685580e-02
   2.35774294e-02  -7.46515067e-03  -4.34292965e-02  -2.00033151e-02
   6.07992783e-02  -7.11613521e-02   7.29990676e-02  -3.46471295e-02
  -4.01971862e-02  -1.77580863e-02  -8.14354271e-02   4.59638461e-02
  -4.47966717e-02  -1.94352269e-02   4.68787551e-02   3.55702452e-02
  -5.39595820e-02   6.89532310e-02   5.73124662e-02  -8.60739201e-02
  -8.23244154e-02  -6.53394237e-02  -4.01536971e-02  -4.61702161e-02
  -6.54772148e-02  -7.23095909e-02  -6.60914555e-02  -2.83517130e-02
  -2.09929589e-02  -9.09937546e-02  -1.27509832e-01  -6.62674457e-02
   5.59082367e-02  -1.60563681e-02   4.32385691e-03   1.06338002e-02
  -7.62216449e-02   6.55830663e-04   6.05366379e-02   5.90650812e-02
  -5.05104996e-02  -7.28032291e-02  -5.00669703e-02  -7.54758418e-02
   2.50724331e-02   9.71853510e-02   6.88966364e-02  -4.52303030e-02
   8.89011472e-02  -2.72063576e-02   5.77277038e-03  -6.55590966e-02
  -1.15170129e-01  -4.67019938e-02  -2.01458246e-01  -2.13345081e-01
  -2.55191088e-01  -2.13988259e-01  -2.54995108e-01  -1.72626719e-01
  -1.72349617e-01  -3.50120515e-02  -6.37749434e-02   1.00540463e-02
   2.12865192e-02  -6.28404766e-02  -5.63549809e-02   4.00599837e-03
  -6.76912069e-02   6.64618239e-02   2.31190175e-02  -1.38664953e-02
  -2.04672441e-02  -1.68876387e-02   5.24815777e-03   2.56514456e-03
   7.48110935e-04  -4.89284731e-02  -1.37047276e-01  -1.41311094e-01
   3.19436044e-02   6.22245669e-02   4.88062091e-02   4.73343208e-02
   4.55380157e-02  -4.35325503e-02  -1.41423300e-01  -1.04091235e-01
  -5.49682453e-02  -5.91994375e-02   2.54624672e-02  -4.99024987e-03
   7.71911517e-02  -6.57175407e-02  -4.16844971e-02  -2.68222261e-02
   4.78653610e-03   4.17012349e-02  -3.38141359e-02  -6.09056316e-02
   1.42986998e-01   4.63579148e-02   1.45730287e-01   9.97894406e-02
   9.90196690e-02   5.05586267e-02   8.09568018e-02   1.30944997e-01
  -3.69538330e-02   4.96515781e-02   7.65765086e-02   9.82781872e-02
   4.56204228e-02  -1.60736114e-01  -9.56954733e-02  -3.14927340e-04
  -4.39251773e-02  -3.17495167e-02  -6.54230490e-02  -6.61850721e-02
  -4.77788486e-02  -5.29474504e-02   4.26164642e-02  -5.98321073e-02
   4.31683064e-02  -5.80864474e-02   6.89125136e-02   1.79216620e-02
   6.34402111e-02   4.67056818e-02   1.41557887e-01   2.25616261e-01
   1.03703514e-01   1.33674651e-01   7.06687719e-02  -2.55196299e-02
   5.08914655e-03  -1.82010804e-03   2.03276183e-02  -4.13707457e-02
  -6.59038732e-03  -7.46522546e-02  -2.39022553e-01  -2.46413887e-01
  -1.41531989e-01  -6.81293160e-02  -1.30424619e-01   4.94364314e-02
   3.59639898e-02   6.94553629e-02  -3.86050381e-02  -8.26680958e-02
  -3.19483913e-02   7.40073845e-02  -3.62862274e-02  -1.16112689e-02
  -3.62592563e-03   1.17537998e-01   2.84277163e-02   1.23869784e-01
   2.37166435e-02   9.08707231e-02   2.12324515e-01   1.28537700e-01
   5.99017888e-02   2.57002972e-02   1.40277520e-01   1.87223673e-01
  -3.80493589e-02  -2.16050819e-02  -3.52818549e-01  -1.83955967e-01
  -2.08816186e-01  -6.65750802e-02   1.48625299e-02   1.11647956e-02
  -5.45462370e-02  -1.02054387e-01   2.03266460e-02  -2.63973586e-02
  -4.78048436e-02   6.47806004e-02  -4.01551835e-02   1.17443586e-02
   3.99530530e-02   1.33035898e-01  -2.55690073e-04   1.41395897e-01
   2.07325183e-02   1.30101159e-01   7.70228878e-02   2.62401067e-02
   1.36143684e-01  -5.65949874e-03   1.13653384e-01   1.01119578e-01
   1.42218232e-01  -4.49712463e-02  -1.99536368e-01  -2.38797158e-01
  -1.82074592e-01  -1.08400635e-01   9.53633524e-03  -3.90364081e-02
   7.86321051e-03  -2.96304710e-02  -7.76108447e-03   3.43714431e-02
  -3.46616507e-02  -8.03672522e-02   1.51505750e-02   1.33486791e-02
   9.61723700e-02   4.44503501e-02   1.27896652e-01   1.48333624e-01
  -3.81620787e-02   1.73387416e-02  -3.61035764e-02  -1.07571252e-01
  -1.77435517e-01   7.09899366e-02   1.70727551e-01   2.92474002e-01
   1.22229822e-01  -8.06989744e-02  -5.28784692e-02  -1.21763207e-01
  -1.59411162e-01  -3.63796689e-02  -2.13104207e-02  -7.66777620e-02
   3.41911204e-02   1.14963818e-02   5.32242656e-02   3.62892961e-03
  -7.84000307e-02   6.70981556e-02   2.49729957e-02  -6.19309433e-02
   7.64755532e-02   1.54954642e-01  -6.88531026e-02  -8.78934264e-02
  -1.89486116e-01  -1.50507852e-01  -7.91539624e-02  -1.38071671e-01
  -2.55958587e-02   5.73695488e-02   2.08830014e-01   2.89371818e-01
  -5.94082922e-02  -3.91229242e-01  -1.72704890e-01  -1.18890524e-01
   3.37249190e-02  -3.13483216e-02  -3.38750146e-02   1.66153982e-02
  -6.93819970e-02  -5.63354045e-02  -8.00484493e-02   1.79923512e-02
  -1.13019869e-02   7.66873956e-02   3.73593867e-02  -3.52055952e-02
   5.15950508e-02   3.68499830e-02  -2.51394093e-01  -2.95753390e-01
  -3.32078367e-01  -4.20503348e-01  -2.71499187e-01  -2.69158557e-02
  -5.56828864e-02   5.90341762e-02   1.58342943e-01   1.85835600e-01
  -1.92640256e-02  -2.53608763e-01   2.43812315e-02  -1.57193523e-02
   1.18185235e-02   3.38705741e-02  -1.28422258e-02   3.53205414e-03
  -8.91165212e-02   4.47288416e-02  -3.65838669e-02  -6.03416422e-03
  -5.16656376e-02   1.73048172e-02   2.80422214e-02  -1.17988065e-01
  -7.33010098e-02  -1.57781944e-01  -2.18333989e-01  -3.62049609e-01
  -3.46413106e-01  -2.99142092e-01   5.02752364e-02   6.69195205e-02
  -1.64094451e-03   9.94491726e-02   1.06298037e-01  -6.81962222e-02
   2.25800499e-02   1.88898493e-03   8.09242129e-02   1.17692515e-01
   6.91003874e-02   3.45114172e-02   1.47968590e-01   1.44340500e-01
   6.41002730e-02   1.74308881e-01   8.39981437e-02  -5.00754863e-02
  -8.29864517e-02   5.63654862e-02   4.61649708e-03  -1.11574866e-01
  -2.66753826e-02  -3.77594642e-02  -2.93641895e-01  -2.47986957e-01
  -1.59879029e-01  -5.12188077e-02   9.52107608e-02   1.07577920e-01
   1.87560201e-01   7.92269781e-02   1.38900578e-01   6.31166846e-02
  -3.46856527e-02   7.43856356e-02   1.34782642e-01   3.04537684e-01
   1.55967906e-01   9.94658768e-02   7.53221810e-02   8.28797966e-02
   6.99055195e-02  -1.34532899e-02   2.18757372e-02  -7.89704025e-02
   6.99274689e-02   4.36581448e-02  -7.87822455e-02  -5.75409681e-02
   1.24888318e-02  -8.92841294e-02  -1.14346065e-01  -1.16518766e-01
   9.18798298e-02   1.82997093e-01   6.77507296e-02   1.11918606e-01
   1.38889611e-01   1.06326893e-01   3.72948460e-02  -2.39967648e-02
  -5.30438162e-02   6.91152876e-03   3.45356613e-02   7.19874427e-02
   2.53177751e-02   1.91126212e-01   2.18989268e-01   1.05483584e-01
   6.13858774e-02   1.84704345e-02   6.09273911e-02   9.94328223e-03
  -4.48839515e-02   7.13226423e-02  -3.52052040e-02   3.31371836e-02
   6.77401945e-02  -5.13453558e-02   2.61864588e-02   1.38038293e-01
   1.77138105e-01   2.15311825e-01   1.36430651e-01  -1.31322583e-02
   1.36204988e-01   1.04432389e-01   5.40949143e-02  -7.84807131e-02
  -9.00335982e-02  -1.08844433e-02  -5.65521568e-02   9.12289545e-02
   2.90011987e-02  -3.52017805e-02   5.16132340e-02   2.27873400e-03
   2.27055093e-03   4.20379452e-02   4.62498190e-03   2.18588021e-02
  -2.35542655e-04  -1.29773067e-02   1.82988681e-02  -4.38529626e-02
   4.28725705e-02   1.82715897e-02  -4.93692327e-03  -2.78227199e-02
  -5.83714768e-02   1.83227845e-02  -6.47778763e-03   4.51083593e-02
   5.98079674e-02   1.11824654e-01   1.97414514e-02  -1.56484589e-01
  -7.85402954e-02  -6.56455234e-02  -5.71060330e-02   4.26492421e-03
  -4.58751917e-02   1.41250398e-02   1.72578152e-02   7.17106313e-02
  -2.70886570e-02   2.02546790e-02   1.05633112e-02  -5.74510917e-03
   8.03248808e-02  -7.78938383e-02  -3.12385485e-02  -4.62481305e-02
   7.12421313e-02  -8.20022151e-02  -9.97448787e-02  -1.28218681e-01
  -4.28652130e-02  -6.39357045e-02  -6.56555295e-02  -2.11619083e-02
   1.16866417e-01   1.15912452e-01  -1.30672974e-03   3.08799446e-02
  -8.15797225e-02   1.41741447e-02  -3.83517519e-02   3.09621654e-02
  -1.65068701e-01   5.36521431e-03   2.88550574e-02   1.01913452e-01
   2.55228542e-02   3.82321887e-02   1.28743239e-02   2.70163752e-02
  -4.92543466e-02  -9.63693578e-03  -5.15450798e-02  -5.62628917e-02
   1.85141638e-02  -8.44717175e-02  -3.94128487e-02  -3.45455147e-02
  -1.03259407e-01  -1.57674819e-01  -6.45405650e-02   1.50379285e-01
   1.47318795e-01   1.77125305e-01  -6.84359903e-03  -1.17102396e-02
  -1.32364824e-01   1.32630780e-01   1.77822083e-01  -1.84125230e-02
  -5.05211167e-02  -9.52372849e-02   5.87283485e-02  -2.49108747e-02
  -2.01558657e-02  -8.62579141e-03   6.69025853e-02   2.64486056e-02
  -6.37627542e-02  -1.39464205e-02  -4.38906699e-02   3.12029440e-02
   3.35288793e-02  -8.80210474e-02  -6.99212477e-02  -1.55909685e-02
  -1.23041615e-01  -1.47007570e-01  -2.63833739e-02   4.19667065e-02
   1.06519140e-01   1.35830671e-01   9.96555910e-02   9.97175425e-02
   4.05915193e-02  -6.29647002e-02   4.50905114e-02  -4.80739214e-03
  -7.87972957e-02  -3.17779370e-02  -2.06942074e-02  -6.52901679e-02
  -1.06752053e-01   2.55136890e-03   4.10901718e-02  -7.31722116e-02
  -5.09207137e-02  -7.35794827e-02   5.65222912e-02  -7.76409134e-02
   2.67040282e-02  -8.52243155e-02  -1.60776570e-01  -3.13395225e-02
   1.15589555e-02  -2.04568714e-01  -8.27221051e-02   5.02456212e-04
   4.80816998e-02  -1.36104509e-01  -7.93377981e-02   4.82504815e-02
   5.08195460e-02  -1.30517215e-01  -1.35862380e-01  -4.06068526e-02
  -1.86823588e-02  -4.77709845e-02  -7.21738935e-02   4.67040390e-02
  -2.56442931e-02   4.19000499e-02   3.28507796e-02  -3.14410143e-02
  -7.95130357e-02   2.39583049e-02  -2.88568921e-02  -9.83820856e-02
   4.56004180e-02  -1.30891219e-01  -9.18957517e-02  -1.05495825e-01
  -8.39406475e-02  -9.05121118e-02  -1.68344870e-01  -6.10546730e-02
  -7.37384856e-02  -9.58542302e-02  -1.50459155e-01   5.84388450e-02
   8.36136416e-02  -1.50844544e-01  -7.39630982e-02  -5.15286624e-02
   9.74108204e-02   1.29762124e-02  -1.30359769e-01  -1.51019320e-01
   1.30553134e-02   1.82702653e-02   3.26899346e-03  -5.44467494e-02
  -6.21262863e-02  -2.80053727e-02   8.13792050e-02   2.87146424e-03
   2.09772009e-02  -8.55861306e-02  -2.86927968e-02  -3.31454240e-02
   3.18712817e-04   7.27296667e-03   4.02538776e-02   1.25767365e-01
   1.50912777e-01   1.17026746e-01   8.47735703e-02   1.05752990e-01
   5.30087389e-02   2.77625546e-02  -7.75013268e-02  -7.67688230e-02
   5.65241054e-02  -1.76529530e-02  -4.17141728e-02  -3.79994810e-02
   1.96425449e-02  -6.81281164e-02  -4.16570082e-02   2.64941454e-02
   3.80505100e-02  -3.80948298e-02  -6.84768930e-02  -8.33947212e-02
  -4.75317053e-02  -1.08757637e-01  -6.61569908e-02  -1.21722810e-01
  -1.68323740e-01  -3.53466608e-02   2.18654163e-02   4.68336046e-02
   1.23413309e-01   1.21855646e-01   2.09587246e-01  -6.94957562e-03
   8.92281458e-02   1.22751825e-01  -1.40413046e-01  -7.04441890e-02
  -1.08634040e-01  -1.67000070e-01  -1.38974816e-01   2.93516330e-02
   3.87050062e-02   5.39914295e-02   4.60471623e-02  -7.69532025e-02
  -5.98400608e-02   3.50048915e-02  -3.16727161e-02   4.60545085e-02
   2.01026648e-02   2.32180431e-02   4.31055240e-02  -2.63432711e-02
   5.46367206e-02   3.08110528e-02   1.70987379e-02   2.80035306e-02
  -5.03093116e-02  -7.72333667e-02  -2.98176520e-02   7.52863660e-02
   6.65711239e-02  -1.96863599e-02  -1.46996289e-01  -8.57584104e-02
  -4.77231182e-02  -3.82285230e-02  -2.45387182e-02   1.78142563e-02
   9.45330970e-03   2.20970251e-02  -3.25284265e-02  -5.59093654e-02
   3.80411446e-02  -8.12321305e-02  -8.38928968e-02  -5.52616976e-02
  -6.16494529e-02  -5.15881591e-02   5.87371886e-02   2.22480502e-02
   7.08737317e-03   1.30602755e-02   6.01372831e-02  -7.75842601e-03
  -2.46133767e-02   1.57562606e-02  -4.33775522e-02   3.69445235e-02
   2.99232826e-02  -1.01232864e-01   5.22681922e-02   5.38944006e-02
   4.15522493e-02  -1.04701996e-01  -1.06967814e-01   7.07123578e-02
   1.78019404e-02   2.31290027e-03   1.91621184e-02  -4.22393903e-02
   3.32170874e-02   4.67875078e-02   8.29343125e-02  -1.60399899e-02
  -2.06315145e-02  -6.31129220e-02   2.33493671e-02   1.90964937e-02
  -6.97388593e-03   6.02073818e-02   7.76055036e-03  -5.47788516e-02
   1.63059421e-02  -1.35705071e-02   5.87872863e-02   3.71785983e-02
   6.47643656e-02  -3.39575410e-02  -5.38699105e-02  -6.79344311e-02
   7.77136311e-02   3.25847566e-02   4.93583865e-02   8.39414522e-02
   1.30089149e-02  -9.72341746e-03  -3.07498276e-02   4.10622135e-02
   5.28158918e-02   2.01424584e-02  -1.41517520e-02  -7.49545395e-02
  -7.42636546e-02  -9.19267535e-04   1.96605772e-02   6.45089671e-02
  -2.70266794e-02   7.78667703e-02   7.99043402e-02   3.63793969e-03
   8.16733614e-02  -2.38205828e-02  -3.11954431e-02   3.36761624e-02
   1.01803839e-02  -5.80503941e-02  -1.54101923e-02  -7.56480992e-02
  -9.71397012e-03   3.02985758e-02   5.66582158e-02   7.22427741e-02
   4.15640995e-02   7.35617355e-02  -7.73522109e-02   4.93281111e-02
   2.86350399e-03   7.88165107e-02  -2.81619169e-02  -1.20615661e-02
   6.50818720e-02  -1.00568309e-02  -1.54689988e-02   6.97558373e-02
  -2.89642867e-02  -2.66967919e-02  -6.77820146e-02  -5.25330789e-02
  -3.70267145e-02   8.74371640e-03   3.71997468e-02  -3.70859168e-03
   1.35907922e-02   6.01324029e-02   8.95086583e-03   4.75502908e-02
   6.52709976e-02   4.88240458e-02   2.61675045e-02  -9.44560021e-03
   2.85031721e-02  -5.11668511e-02   8.23407993e-02   7.58550093e-02
  -5.10856099e-02  -3.94100808e-02  -7.92079195e-02  -4.74509820e-02
   1.67425498e-02  -2.24509276e-03  -2.96769361e-03   4.98065762e-02
   4.45508435e-02   2.30729152e-02  -9.02668945e-03   1.80227179e-02
  -3.45239561e-04   5.06651290e-02   7.13824332e-02  -4.73457612e-02
  -3.29181589e-02   2.89985985e-02  -7.57656097e-02   5.06166182e-03
  -7.76328892e-02  -9.23423562e-03   1.23224668e-02  -5.72090782e-02
  -6.21219836e-02   5.03743589e-02   5.48418239e-02   5.88400140e-02
   4.38870490e-03  -4.50348631e-02  -7.32731298e-02  -4.11374122e-02
  -1.21810159e-03  -4.34448607e-02  -5.82828885e-03   9.98660363e-03
   3.39825973e-02  -5.14674596e-02   3.71147096e-02  -8.57895762e-02
   8.06948543e-02  -1.39969707e-01  -4.84043472e-02   4.41002572e-04
  -9.81937274e-02  -4.45995703e-02   3.02142389e-02   5.00027463e-02
  -1.73472930e-02   1.21970708e-02   4.39136401e-02  -5.84724844e-02
   5.73931038e-02   3.36920656e-02   6.93993792e-02  -6.24289364e-03
  -4.11788523e-02  -7.63498545e-02   2.48327851e-03  -6.69546276e-02
  -7.76569173e-02   6.50412068e-02  -5.60512394e-02  -3.18104699e-02
   6.61166310e-02  -4.19251248e-03  -1.02473304e-01  -8.39443207e-02
  -5.80425523e-02  -1.59262985e-01  -1.09792911e-01  -1.21846862e-01
  -1.49838731e-01  -1.60817236e-01   4.75063035e-03  -9.95299071e-02
  -1.40265942e-01  -8.21311027e-02  -6.23834394e-02  -3.81170213e-02
   4.86567132e-02   3.25889401e-02   5.81866279e-02  -6.64569959e-02
  -1.83493197e-02   5.68290129e-02  -2.89873350e-02  -7.24459887e-02
  -6.48449585e-02  -5.46190254e-02  -1.71144512e-02  -8.87139887e-02
  -3.77860069e-02  -1.63881984e-02  -1.72589958e-01  -1.68313399e-01
  -5.96579872e-02  -2.17637587e-02  -2.35698242e-02  -1.23546705e-01
  -1.51405320e-01  -1.46890372e-01  -1.65753692e-01  -1.42183363e-01
  -6.17702259e-03  -6.07921481e-02  -1.51643738e-01   3.32703404e-02
  -1.06008366e-01  -2.25323867e-02  -7.49101862e-02  -4.07260023e-02
   7.11929426e-02  -4.14155126e-02  -7.32937232e-02   4.14244533e-02
   3.16899596e-03   4.26714011e-02   5.42084575e-02  -5.18209822e-02
  -3.35177965e-02  -5.94604798e-02  -1.81852862e-01  -9.75512266e-02
  -9.77893025e-02  -2.00334251e-01  -1.55330315e-01  -1.04542255e-01
  -1.06898747e-01  -1.08777985e-01  -3.17103676e-02  -1.16662785e-01
  -1.16815589e-01  -1.21324167e-01   1.15504805e-02   6.60779923e-02
  -2.38362160e-02  -2.69511919e-02   2.03700438e-02  -4.22691517e-02
  -1.19550237e-02  -3.50351781e-02   7.38801211e-02   5.85679291e-03
   3.74973863e-02  -3.09067592e-02  -1.03395656e-01  -7.85565898e-02
  -8.64276364e-02  -1.77006364e-01  -6.13894761e-02  -2.79766005e-02
  -5.45078516e-02  -1.55044785e-02  -1.29575599e-02  -4.61736135e-02
  -7.40508214e-02  -1.85635790e-01  -6.65443838e-02  -1.12470023e-01
  -9.54524614e-03   1.93074229e-03   8.62155482e-02   7.52003342e-02
   6.30214578e-03  -6.91129416e-02   6.28689677e-02  -3.49885151e-02
  -7.97862783e-02   2.57431027e-02   4.78553362e-02  -3.04806582e-03
  -6.39440343e-02   7.51705095e-02  -8.28587413e-02  -1.26842603e-01
  -9.55223888e-02  -1.67537674e-01  -5.58979884e-02  -9.89410281e-02
  -6.52559325e-02   1.79850474e-01   4.22544256e-02   4.83445451e-02
   9.90618914e-02   2.21623898e-01   1.16372019e-01   1.15867972e-03
   3.02456599e-02   1.87935220e-04   1.02474988e-01   9.51791257e-02
   5.41457124e-02   6.95337728e-02  -6.94325119e-02   1.40820025e-02
  -7.31071085e-02  -5.64760529e-02  -4.21677418e-02  -7.05875829e-02
   5.63645586e-02   2.99659036e-02  -5.68448287e-03  -1.41965374e-01
  -1.31336793e-01  -5.02077267e-02   1.96884908e-02   5.58474027e-02
   7.11545860e-03   2.11731285e-01   6.70217201e-02   1.19568273e-01
   1.55691504e-01   2.83950239e-01   2.87049621e-01   2.17090666e-01
   1.25410659e-02   7.79897720e-02   1.43859088e-01   1.11232392e-01
   1.43793702e-01   1.57202467e-01  -4.98082601e-02  -7.18312338e-02
   4.60061468e-02  -1.69190299e-02  -5.29708900e-02   6.70392364e-02
  -6.93837106e-02  -1.57694947e-02  -6.39869943e-02  -1.34832218e-01
   9.14473459e-03  -3.13664377e-02  -2.08836794e-02  -8.13925713e-02
   8.16084072e-02   1.82939649e-01   3.05617541e-01   1.66866198e-01
   1.74988687e-01   5.62526509e-02   1.26663417e-01   1.39590800e-01
  -1.60142984e-02   1.39605384e-02  -4.58943145e-03   1.38896823e-01
   1.74236163e-01   9.16565880e-02  -3.67229171e-02  -7.69155771e-02
   5.57183959e-02  -1.03585189e-02   4.65743504e-02  -8.94105881e-02
   6.65892586e-02  -9.36407000e-02  -1.87899917e-01  -1.53506875e-01
   5.82528971e-02   6.06057644e-02  -1.70168225e-02  -3.76817584e-02
   5.26480228e-02   2.77521759e-01   3.07874884e-02   6.79045264e-03
   1.28211007e-01  -9.05139074e-02   9.31770504e-02  -5.87430820e-02
  -8.13045129e-02   4.30537462e-02   4.41099592e-02   5.86482026e-02
   1.70453321e-02   8.89050215e-02  -2.01683468e-03   5.95931262e-02
  -2.06729714e-02  -5.05221374e-02   4.07695249e-02  -5.45695387e-02
   6.74482137e-02   1.35076204e-02  -1.27798706e-01  -5.73757216e-02
   8.47565755e-03   7.31734335e-02   4.17031869e-02   9.34713259e-02
   1.95935089e-02   2.39037260e-01   1.47037536e-01   2.49667212e-01
   7.63210878e-02   1.13433963e-02   1.17845442e-02  -9.45388749e-02
  -1.53925642e-01  -1.15139551e-01   5.53366579e-02  -6.22429028e-02
   8.48338678e-02  -1.77240539e-02   1.65076908e-02   3.77996415e-02
   2.22466625e-02  -1.22696524e-02   4.24031354e-02  -7.18976110e-02
   6.67106658e-02  -3.30471694e-02  -9.24902484e-02  -9.89520252e-02
  -8.65760893e-02   1.15856975e-01   7.86416233e-02   5.12361266e-02
   4.05342840e-02   7.74226561e-02   1.70502082e-01   1.11488774e-01
   1.41384959e-01   2.04250917e-01  -1.12821527e-01  -2.52031267e-01
  -2.33128846e-01  -1.65143102e-01  -7.47725219e-02  -5.26909493e-02
  -6.31032065e-02   9.39978659e-03   7.51433522e-02   4.15694714e-02
   3.84872779e-02  -3.73244546e-02   8.06158483e-02  -5.18619306e-02
  -4.76506166e-02  -4.48920503e-02   4.30003442e-02  -3.62138338e-02
  -7.90362433e-02   5.84997684e-02  -1.86465811e-02  -5.31520024e-02
  -1.77390724e-02   1.11685775e-01  -3.24920267e-02   1.14524037e-01
   1.18599683e-01  -4.40894999e-03  -9.44205970e-02  -1.49418384e-01
  -2.35329837e-01  -2.17061639e-01  -6.81856498e-02  -4.44477834e-02
  -1.58826110e-03  -5.71252592e-02  -3.39414291e-02  -6.46701902e-02
  -6.07012622e-02   7.35727325e-02   9.96849034e-03  -6.16400242e-02
  -6.44482821e-02   7.23239454e-03   5.53682670e-02   7.87096992e-02
   7.29140267e-02   5.48978150e-03   7.48427212e-03  -2.61378959e-02
   3.53751646e-04   2.98682097e-02  -5.26635461e-02   1.00680329e-01
   5.07201962e-02   9.35681313e-02  -5.12940437e-02  -1.20604075e-01
  -1.68792605e-01  -2.13049859e-01  -1.08515024e-01  -7.06464723e-02
  -7.98949897e-02  -3.48759480e-02   1.35200499e-02   2.09056307e-02
   8.09358880e-02  -3.03881546e-03  -5.55004664e-02   1.63386259e-02
  -2.97471378e-02   1.40727744e-01  -3.87421213e-02  -9.62557420e-02
   8.24278817e-02   1.47835733e-02   3.26328278e-02   4.76599522e-02
  -6.62277490e-02   3.59254181e-02  -1.15310617e-01  -4.13978659e-02
   4.83438298e-02   2.50872150e-02  -4.88669313e-02  -1.45130754e-01
  -1.03058115e-01  -1.39835939e-01  -2.22607180e-02  -8.25196728e-02
  -1.23254798e-01   1.71592794e-02   1.33958347e-02   2.53146198e-02
   2.24715546e-02  -7.23071992e-02   3.22466791e-02  -1.36257689e-02
   2.28337552e-02   4.68233693e-03  -2.13545188e-02   5.59187084e-02
   1.53489476e-02   2.72822455e-02   1.31391823e-01  -1.08925819e-01
  -1.55256495e-01  -7.84512758e-02  -3.13020498e-02  -5.78811839e-02
  -7.79201239e-02  -4.86599877e-02  -1.30372584e-01  -1.21857442e-01
  -8.56033787e-02  -1.67583674e-01  -1.45816296e-01  -2.37853248e-02
   2.76753139e-02   1.02944393e-03  -5.95725738e-02   1.07182721e-02
  -1.16187166e-02  -4.90310527e-02  -3.07975430e-03  -8.52744505e-02
  -9.35427696e-02   1.02232508e-02  -1.12757653e-01  -8.83632153e-02
   1.61697697e-02   5.09955063e-02   4.68733944e-02  -1.22186095e-02
   5.71984751e-03   1.31730847e-02  -2.91021690e-02  -5.59749119e-02
  -1.18640587e-02  -1.38053810e-02  -1.57059312e-01  -1.58208460e-02
  -3.30294743e-02  -2.02083271e-02  -1.50367394e-01  -1.10001631e-01
  -2.86767855e-02  -4.04854864e-02  -2.44401470e-02   3.80850136e-02
   1.43121704e-02  -3.05845421e-02  -3.16431113e-02  -5.06530516e-02
  -5.77871278e-02  -1.23863481e-01  -4.34776843e-02  -7.29923770e-02
  -3.57676335e-02  -2.41351984e-02  -1.29799163e-02  -8.88397321e-02
   3.29809561e-02  -5.01626357e-02  -5.08735813e-02  -6.33999631e-02
   8.74447078e-02  -9.43561047e-02  -1.56646997e-01  -1.30967796e-02
   5.93392812e-02  -1.21891508e-02  -7.04396069e-02  -8.07475299e-02
   2.64712088e-02   7.20997676e-02   2.39385162e-02  -5.02879173e-02
  -7.69556910e-02   6.95143789e-02   1.74951181e-02   1.44353379e-02
  -9.84680578e-02  -1.08356467e-02   5.23083992e-02  -3.01595032e-02
  -2.31378842e-02   1.10814935e-02  -4.83773872e-02  -1.07351325e-01
  -3.14698629e-02   8.73254836e-02  -1.79320320e-01  -1.10464178e-01
  -7.11538270e-03  -8.29493348e-03  -4.62412797e-02   2.48919986e-02
   7.55650327e-02  -7.78253600e-02   4.00258042e-02  -6.74141645e-02
  -2.57066973e-02  -3.13735120e-02  -2.15445627e-02   3.45481490e-03
  -7.30446130e-02   6.75933659e-02   8.52761976e-03   4.84467559e-02
  -4.69859987e-02  -1.51035219e-01  -9.70418304e-02  -3.79532315e-02
   5.57195209e-02  -8.25431477e-03  -5.75276241e-02   2.21401174e-02
   5.02906181e-02   2.82735601e-02  -1.56370252e-02  -5.12018725e-02
  -1.28699511e-01   1.11544784e-02  -1.06445089e-01  -4.54186574e-02
   7.19629452e-02   6.07181974e-02  -1.24829061e-01   1.37403309e-02
  -2.41414867e-02  -7.49419108e-02   9.43649933e-03   9.83650982e-03
  -5.54809393e-03   5.17767332e-02   7.74518251e-02  -5.40060103e-02
  -6.56538978e-02  -3.96391563e-02  -1.19956426e-01   1.01029081e-02
  -1.78011577e-03   8.85603353e-02  -1.80444997e-02  -2.43061837e-02
   2.01452393e-02   3.44831459e-02   3.80859450e-02  -6.72087297e-02
  -8.95902291e-02   7.58872852e-02   7.15848878e-02   9.06961039e-02
   1.06006227e-01   1.01875234e-02   4.26993445e-02   6.81383349e-03
   3.43806180e-03  -3.04872431e-02  -2.45716348e-02  -7.56680965e-03
  -6.59313947e-02  -3.30559649e-02   3.42228748e-02   5.29983528e-02
  -5.90917096e-02  -5.98418824e-02   2.76826508e-02   5.36473542e-02
   6.27199486e-02   6.87581450e-02   8.01921822e-03   3.55995377e-03
  -7.72548243e-02   2.40372866e-02  -1.02768645e-01   2.08435375e-02
  -6.34237099e-03  -2.59512477e-03   2.71666665e-02   8.98243785e-02
   1.77939944e-02  -3.77020575e-02  -2.05681697e-02   8.32125694e-02
   2.88004465e-02  -1.11735575e-02   1.84117854e-02  -6.42183796e-02
  -8.04317445e-02  -2.58731060e-02   5.55659048e-02   3.99575755e-03
  -2.40667555e-02  -6.42298013e-02  -6.33519813e-02   7.77091756e-02
   9.51215923e-02   2.76491810e-02   9.80197415e-02  -1.86120849e-02
  -3.78310978e-02  -9.30785015e-03   3.93570364e-02   4.26779129e-02
   5.38617596e-02   1.01085812e-01   1.86915193e-02  -3.84384617e-02
  -1.81394033e-02   1.13476124e-02  -8.25472400e-02   9.68976095e-02
   1.70354340e-02  -7.30914483e-03   7.03038573e-02   6.96693435e-02
   3.16463336e-02  -5.91871589e-02  -2.61978526e-02  -5.17096035e-02
  -1.61537081e-02   4.04175445e-02  -3.31724696e-02  -2.04853192e-02
   8.85962918e-02   6.40960634e-02  -1.19148523e-01  -9.76239964e-02
  -1.00206137e-01  -5.69081642e-02   9.29750651e-02  -2.29889844e-02
   1.21391132e-01   1.01893738e-01  -3.03706322e-02  -3.46496142e-02
   7.22855190e-03  -4.18969393e-02  -2.78813466e-02  -5.97851463e-02
  -3.20544764e-02  -8.02714825e-02   8.07030965e-03   8.04207996e-02
   5.57582453e-02  -7.66097829e-02  -8.99440795e-03   6.77363127e-02
   7.23281549e-03   1.84487533e-02   9.65851769e-02   1.05873076e-02
  -3.24968286e-02   2.47330908e-02   5.67139611e-02   4.51881215e-02
   4.74907085e-02   7.13476464e-02   8.50722194e-02   1.18287183e-01
   8.61193612e-02   6.49917796e-02  -3.60912941e-02   8.17315355e-02
  -3.20892967e-02   5.64825684e-02   2.11965386e-02  -4.29071710e-02
   8.24968219e-02  -1.05299065e-02  -1.53210089e-02   1.70172825e-02
   2.21301466e-02   4.89258692e-02   1.22184306e-02  -2.05332041e-02
   6.84773847e-02   4.38059457e-02   1.78539623e-02   9.05092806e-02
  -1.05479322e-02   5.01762629e-02   3.81666273e-02   8.14471915e-02
   1.42689953e-02   3.55514549e-02   1.95133667e-02  -6.30685017e-02
  -2.71017496e-02   4.83737700e-02  -1.07682627e-02   5.46305813e-02
  -3.08630001e-02  -2.13799849e-02  -7.36335889e-02   7.84365311e-02
   2.47456506e-02   7.44334236e-02  -8.71111453e-03   1.98630318e-02
   4.19232175e-02   6.77114800e-02  -3.03245671e-02  -3.03175859e-02
   3.35583389e-02   2.50861049e-03   7.18077943e-02  -1.20840818e-02
   6.27240017e-02   5.79105839e-02  -2.21595168e-03  -3.43006849e-03
   6.30117953e-04  -5.50327525e-02  -7.00648054e-02   6.13682941e-02
  -7.04419762e-02  -1.04535893e-02  -7.17686042e-02   1.59196630e-02
  -6.45671338e-02  -3.89081314e-02  -7.81505108e-02   3.87065783e-02
   7.15702400e-02  -2.61825323e-02  -3.76958176e-02   3.64006609e-02
  -1.41507685e-02   5.94205484e-02  -6.84888661e-03  -2.24465877e-02
   4.76118401e-02   4.82298136e-02  -2.89354436e-02   1.27520403e-02
  -3.44208293e-02   2.20112093e-02  -5.69100380e-02  -3.81353348e-02
  -6.47701323e-02   7.85333943e-03  -6.17947765e-02   6.42530248e-02
   2.34519169e-02  -5.93946390e-02   1.49980457e-02   7.18126670e-02
  -3.29581834e-02  -4.00776826e-02  -6.44154772e-02   1.98520180e-02
  -7.15518072e-02  -7.85154104e-02  -1.35124698e-02  -3.46935801e-02
   4.21983227e-02   4.06643897e-02  -7.14011192e-02  -6.11822084e-02
   2.67490819e-02   5.35853170e-02  -1.54119777e-03   5.26294820e-02
   8.33558738e-02   3.20704840e-02   6.63178861e-02  -3.85482199e-02
  -6.86900392e-02  -3.60042648e-03  -5.55872656e-02  -1.96338817e-02
  -6.09739823e-03   3.31350118e-02  -5.16092554e-02   3.62768024e-02
   3.75381261e-02  -1.28120398e-02  -4.21977974e-02  -7.65881734e-03
  -3.45521942e-02  -1.58212334e-02   1.87896788e-02  -4.59725410e-03
   1.11366808e-02  -2.61300877e-02   4.59438041e-02  -4.57398891e-02
  -5.72555438e-02  -9.55339056e-03   7.66981617e-02  -7.75023699e-02
   2.56432444e-02   3.55770178e-02  -6.54554516e-02   2.29129381e-02
   5.33847548e-02  -1.23090269e-02  -1.82782896e-02   7.47733787e-02
  -1.13827744e-02   2.95604486e-02   6.58649346e-03   1.34914471e-02
  -6.15479499e-02  -2.96743810e-02   6.83116838e-02   3.12606990e-02
  -6.70102239e-02  -5.38025312e-02   1.78860947e-02  -2.86659971e-02
   6.55810460e-02   1.55002996e-02  -5.25039025e-02  -7.49840662e-02
   8.31802189e-02   3.51307802e-02  -3.74680348e-02   6.06692769e-02
   5.79604059e-02  -3.76926898e-03   5.68624847e-02   4.75514196e-02
   6.33894280e-02  -4.38247807e-02  -7.51108825e-02   6.77226931e-02
  -5.99818155e-02  -6.03850149e-02   4.34065284e-03  -5.07674590e-02
   1.37009230e-02   4.64935265e-02  -7.27793053e-02  -5.54549024e-02
  -8.15450177e-02  -1.83821116e-02   1.50628099e-02   6.36917204e-02
  -4.55068126e-02  -4.64371927e-02  -5.06861173e-02  -3.95458005e-02
  -1.63931251e-02  -4.44368757e-02   6.29465878e-02   6.75022006e-02
   6.36267811e-02  -2.15674080e-02  -5.57390004e-02   2.23771837e-02
   4.02987748e-02  -1.57635640e-02   8.73688608e-02   3.36581841e-02
   3.73885445e-02  -3.11298706e-02  -8.54470432e-02   6.35882020e-02
  -4.84657772e-02   2.45362651e-02  -1.43753625e-02   7.58825764e-02
   7.10537434e-02   2.82124523e-02   8.42230991e-02  -4.96904366e-02
  -7.79330730e-04  -4.07865420e-02  -5.68507388e-02   2.48787869e-02
   4.12554145e-02  -1.33142741e-02  -3.08712870e-02  -5.27559035e-02
  -4.48585562e-02  -4.19440009e-02   6.19398728e-02   2.87344977e-02
  -1.58597864e-02  -3.16276290e-02   4.95637245e-02   3.48823927e-02
   1.79718230e-02   7.25266933e-02  -1.77737121e-02  -4.62623648e-02
  -5.47832139e-02   8.13103765e-02   7.08773267e-03   1.50584187e-02
   7.75865372e-03   2.34605949e-02   5.40247746e-03   6.87369779e-02
  -4.24042381e-02  -3.96196917e-02   5.48193827e-02  -6.22543097e-02
   6.86748326e-02  -7.76683614e-02  -4.30518463e-02   6.46339059e-02
  -2.18880698e-02   7.42843524e-02  -2.25562900e-02  -1.11133251e-02
  -1.93570828e-04   2.69725658e-02  -7.71998614e-02  -3.18330750e-02
  -7.22683370e-02  -4.33788411e-02  -3.33012342e-02  -7.85590783e-02
   1.77432336e-02  -1.09521095e-02   5.00019453e-02   7.76766688e-02
  -5.91063946e-02  -3.34201604e-02   2.81492136e-02  -1.86613342e-03
   5.41344211e-02  -3.73312235e-02  -3.95381264e-02  -6.10564575e-02
  -7.80807203e-03  -4.27645780e-02  -1.33559443e-02   3.85900028e-02
   8.89242142e-02   3.48105580e-02  -5.04032746e-02  -4.85571437e-02
  -8.78965184e-02   3.83199602e-02  -6.66906387e-02   3.48403417e-02
  -4.15924974e-02   5.19341975e-02   4.95394729e-02   7.26628527e-02
   5.55042289e-02  -1.02271754e-02  -7.28123188e-02   4.60432749e-03
  -2.27303058e-02  -4.28530760e-02   5.72124869e-02   7.59272426e-02
   1.57559514e-02  -8.71569850e-03   5.74592315e-02  -8.60159378e-03
  -2.68332511e-02  -7.19678774e-02  -1.15847625e-02  -3.94249260e-02
   8.29080716e-02  -2.94420514e-02  -1.09435236e-02  -1.83518056e-03
  -4.46188487e-02  -6.82738274e-02   7.90333096e-03   7.60522485e-03
  -4.35481332e-02  -4.77760322e-02  -4.32533510e-02  -4.86458205e-02
   5.19451052e-02  -2.60627568e-02  -7.62963519e-02   8.20127428e-02
   8.09392426e-03   4.77272868e-02  -2.70135589e-02   4.67636436e-02
  -3.78310867e-02   1.49488740e-03   5.05658165e-02  -3.90052199e-02
  -3.96818519e-02  -8.87213498e-02  -3.37323695e-02   4.48008440e-02
   1.29803075e-02  -2.70586647e-03   2.34033298e-02   1.78625602e-02
  -8.07318538e-02   4.78889719e-02  -3.44321392e-02  -2.26528700e-02
  -6.76810816e-02   8.52342919e-02   1.91433728e-02   5.47054708e-02
  -3.55461463e-02  -6.35698661e-02   5.43147847e-02   1.57218091e-02
  -6.12387657e-02   4.44026552e-02   9.25484020e-03  -1.59704629e-02
  -8.21244046e-02   6.44350052e-02  -3.07359695e-02   8.30627307e-02
  -1.63742546e-02   7.04686120e-02   2.36050226e-02   4.82546240e-02
   6.93625957e-02   2.42514033e-02  -4.84100133e-02   6.57304600e-02
  -3.11943628e-02   5.47477677e-02  -1.96311790e-02   2.92619206e-02
  -7.38319159e-02  -8.28508511e-02   1.22937355e-02   1.24728428e-02
   1.67638995e-02   1.27173616e-02  -6.12147413e-02   7.75860474e-02
  -8.52699857e-03   2.84170117e-02   2.79870294e-02   6.80042878e-02
  -5.13532795e-02  -6.64807633e-02  -5.95201775e-02   3.55138332e-02
   7.05306008e-02  -4.94746156e-02   3.36676948e-02  -4.07879055e-02
   3.09704095e-02  -4.16620709e-02  -6.42024055e-02  -9.52442642e-03
   4.06489708e-02   5.34896217e-02  -3.90934870e-02  -4.15742472e-02
   2.31153760e-02  -3.30508873e-02  -7.38093331e-02   3.78569663e-02
  -2.20654476e-02   7.28486329e-02   1.51117714e-02   1.34830214e-02
   3.75440642e-02   6.82932511e-02   9.82441381e-03   8.28917772e-02
  -7.61787668e-02   6.59586564e-02  -5.19470610e-02  -4.99205329e-02
   5.93244238e-03  -4.49388959e-02   4.38846163e-02  -4.82894890e-02
  -3.22626680e-02   3.24125099e-03   1.72139872e-02  -6.95636049e-02
  -7.08708465e-02  -5.23623265e-02   1.88119374e-02  -3.89071330e-02
  -2.30818670e-02  -2.67924787e-03  -2.38613840e-02  -1.22564323e-02
  -3.67466062e-02   4.21798881e-03   3.50831859e-02  -6.13134988e-02
  -5.01020066e-02  -1.29001366e-03  -8.45765844e-02   8.38978682e-03
  -1.82345659e-02  -6.47403225e-02  -3.51547189e-02  -1.12838987e-02
  -3.73145886e-04   3.19805928e-02  -4.14316766e-02  -8.12346637e-02
  -4.96670371e-03   7.55334422e-02   3.16562802e-02   3.89626436e-02
   7.54322708e-02  -9.71150771e-02   3.16634662e-02  -5.51742353e-02
  -5.72010651e-02  -6.18132614e-02  -6.08230233e-02   8.83745477e-02
   1.59389544e-02   5.44637926e-02   5.49441651e-02  -6.58007711e-02
   6.24593236e-02  -8.45554750e-03  -6.91234395e-02   3.56826112e-02
   7.66383186e-02  -3.03401686e-02  -7.86541104e-02   5.13171032e-02
  -3.09802704e-02   5.67070097e-02   2.09045187e-02   6.51926035e-03
   3.94443423e-02   2.05618385e-02  -2.06561740e-02   4.17903997e-03
  -5.36461696e-02  -4.23869528e-02   2.03517899e-02  -5.50048873e-02
   2.26892643e-02  -2.20382027e-02   2.21991111e-02  -6.97620539e-03
   8.98435488e-02   2.51192451e-02  -7.93438107e-02   7.19924271e-02
   5.69915026e-02  -7.06991479e-02  -3.87392566e-02   3.43745500e-02
   6.87549636e-02  -7.39351586e-02  -3.12759839e-02  -3.80809279e-03
  -9.54552728e-04  -7.21564963e-02   8.41664076e-02  -5.49639799e-02
   2.61526345e-03  -8.53688419e-02   2.79357098e-02   1.27828512e-02
  -8.90276209e-02   6.43587187e-02  -6.56960234e-02   9.04218107e-02
   4.56504934e-02   5.76160513e-02   6.42221868e-02  -4.62195054e-02
  -4.23943810e-03  -3.07002328e-02  -5.18185981e-02  -5.22579178e-02
  -4.70727012e-02   4.54402193e-02  -6.20652921e-04  -7.87287951e-02
   1.05515420e-02  -6.07372820e-03   5.25872521e-02   4.06945609e-02
  -4.72055795e-03   1.96911562e-02  -1.62993539e-02  -6.52497932e-02
  -7.35929459e-02   6.41270056e-02  -7.19274953e-02   1.23216482e-02
   2.13253517e-02   7.71249905e-02   9.09320787e-02   5.35763474e-03
  -5.02903126e-02   1.87848508e-02  -2.06946936e-02  -1.64556149e-02
  -2.46646665e-02  -7.81341642e-02  -5.51174022e-02  -5.10055050e-02
   7.71931782e-02   5.64081296e-02   7.96773937e-03   3.48234624e-02
   5.59944585e-02  -2.68384032e-02  -1.74114874e-04  -6.04549088e-02
  -6.17675111e-02  -4.95830178e-02   9.36698262e-03   8.23390298e-03
  -3.02032288e-02  -2.06741095e-02  -5.92063938e-04  -5.65381758e-02
  -1.75025277e-02  -2.37680338e-02  -1.97331943e-02  -2.58328021e-02
  -6.55842051e-02   5.90742007e-02  -8.54448974e-03   7.44980797e-02
  -2.96127163e-02   3.45669091e-02   2.46996898e-02   1.70972385e-02
   6.26452640e-02   5.37393875e-02  -7.92582706e-02   1.14208199e-02
   6.43851683e-02   6.61131814e-02   1.60820112e-02   7.48321936e-02
  -6.08919449e-02   7.98508599e-02  -8.14380776e-03  -8.35492276e-03
  -7.35156983e-02  -3.74102853e-02  -6.29381537e-02  -1.27161248e-03
   2.49396171e-02   3.04179508e-02   5.07409759e-02   4.97857817e-02
   4.40108962e-02   1.96188353e-02  -8.24810490e-02   5.93423396e-02
  -6.60363063e-02  -4.11020517e-02  -4.93503660e-02   7.28775635e-02
   6.62235841e-02   6.47371039e-02   2.72048656e-02   7.60414824e-02
  -1.10686943e-02  -1.17922276e-02  -6.60370961e-02  -3.96109894e-02
  -2.43713427e-02   3.87206003e-02  -5.89591525e-02  -7.01125339e-02
   1.06799752e-02   6.82530031e-02   3.13970931e-02   3.82191204e-02
   3.62939350e-02  -2.19623931e-03  -7.66430572e-02   5.42885363e-02
  -4.09846418e-02  -3.97455655e-02  -6.93287048e-03   6.85687587e-02
  -4.07060347e-02  -4.55982424e-02   4.18194495e-02  -6.76970407e-02
  -7.26881996e-02  -4.04413119e-02   1.11479945e-02   4.07651216e-02
  -5.74909672e-02  -1.62606761e-02   1.72889773e-02   1.12631428e-03
  -6.57915249e-02  -2.51002889e-03   7.94860050e-02  -7.15707392e-02
   2.39066407e-02   2.96780225e-02  -6.72971876e-03  -6.94746897e-02
  -3.03458702e-02   3.11381761e-02  -4.11862470e-02  -4.64323387e-02
  -2.68871263e-05  -3.24449614e-02  -2.38702651e-02   2.01936550e-02
  -2.80848499e-02   6.61079632e-03   2.75766943e-02   1.34069868e-03
   4.89958934e-02  -5.75719327e-02  -3.09529603e-02   7.53277615e-02
  -3.70652154e-02   1.26227736e-04   2.70229895e-02  -4.18897383e-02
  -6.56041205e-02   7.66667649e-02   1.11575006e-02   2.23737806e-02
   6.11853227e-02  -3.13961729e-02  -1.27412723e-02   5.49574606e-02
  -5.77824973e-02  -3.19758356e-02  -5.69811910e-02  -3.02871652e-02
  -4.71358076e-02   8.85724276e-03   6.60627112e-02  -6.49995953e-02
   3.42022181e-02  -3.25377546e-02  -6.29045442e-02  -5.87603487e-02
   4.41205055e-02  -6.10827953e-02   4.82717380e-02  -6.07767999e-02
  -4.47717048e-02  -5.18817045e-02  -2.72489823e-02   1.68733031e-03
   5.94459698e-02   1.55831687e-02  -1.58611871e-03   5.67851542e-03
   2.19364688e-02   8.77572969e-02   2.99342424e-02  -9.22879297e-03
  -1.97438095e-02  -5.01786433e-02   1.90755837e-02  -1.78795047e-02
  -1.78414714e-02  -5.94593287e-02  -4.60922830e-02  -4.75672111e-02
  -4.21158597e-02   5.56835458e-02  -3.88426892e-03   7.74087906e-02
  -1.18073821e-02   1.23016993e-02  -6.27842620e-02   1.62926987e-02
   7.60826692e-02  -4.52314019e-02   8.22721645e-02   3.24713737e-02
  -4.14055698e-02   9.75416228e-03  -4.61771563e-02   5.08384742e-02
  -6.12275898e-02  -1.78118388e-03   5.73455319e-02   6.57283962e-02
  -7.15434998e-02  -3.44717801e-02   4.39769477e-02   4.18607555e-02
   1.04272750e-03   6.35915846e-02   5.74911665e-03  -2.21320782e-02
   5.73359095e-02  -1.04832100e-02  -1.00569148e-02  -6.54876679e-02
   6.21958897e-02  -1.28280148e-02  -2.70953774e-03  -7.51332119e-02
  -5.20496815e-02   4.07047942e-02  -4.00631428e-02  -4.03758809e-02
   7.61135444e-02   7.38828927e-02   3.52585502e-02   2.67688241e-02
  -6.62817582e-02   5.71433790e-02   8.21901951e-03  -5.77509217e-02
   7.74389878e-02  -7.78651461e-02  -1.04448488e-02  -1.71713158e-02
   2.05680002e-02  -3.22439298e-02   4.81189042e-02   1.71887386e-03
  -3.47816385e-02   7.18092918e-02  -1.72419683e-03   5.05500138e-02
  -1.75527800e-02   4.75187525e-02   3.10462788e-02   7.17540458e-02
  -4.87353317e-02  -8.21352378e-02   2.67995596e-02   9.32247937e-03
  -6.08502403e-02   8.80491920e-03   3.35501209e-02  -7.72968158e-02
  -6.66592941e-02   5.94517328e-02  -6.25437796e-02   7.39005581e-02
   6.41416460e-02  -8.40301141e-02  -5.56664057e-02  -2.64562555e-02
   6.77888989e-02   4.15552333e-02   1.19396690e-02  -4.81266230e-02
   6.04052693e-02  -4.25473414e-02  -7.19730631e-02   5.20601124e-03
  -3.26383635e-02   3.07242349e-02   4.53834906e-02   1.90285519e-02
  -3.53106111e-03   3.16564739e-03  -2.00724825e-02  -2.10581794e-02
  -6.65145963e-02   3.20790522e-02  -4.04116772e-02  -2.51788609e-02
  -1.96939483e-02  -1.43526979e-02   6.95059672e-02   4.63759005e-02
   6.96266117e-03  -8.28128681e-02   1.65843545e-03   1.21306616e-03
  -2.45538987e-02   3.16927209e-02  -3.76018323e-02  -6.62881359e-02
   2.09643301e-02  -7.24891350e-02   6.01165518e-02  -2.48895213e-02
  -4.29495685e-02   8.21151957e-02   7.91411847e-03  -2.50965357e-04
  -6.83742091e-02   3.97263020e-02  -2.03620568e-02  -5.54578714e-02
  -2.66091973e-02  -3.05628963e-02   6.45711049e-02   1.69260278e-02
  -6.66666776e-03   6.76661730e-05  -1.40728205e-02  -7.02532455e-02
  -6.84756041e-02  -6.57403767e-02  -4.17294353e-02  -1.52499750e-02
  -3.37370858e-02   4.81131747e-02  -6.20357580e-02   9.96728241e-03
  -4.53028344e-02   2.58929282e-03  -1.50941461e-02  -2.46249363e-02
   8.35871473e-02  -3.79588567e-02   4.96130660e-02  -5.25155962e-02
  -1.47615373e-03  -2.83554271e-02   6.56755641e-02   4.90823314e-02
  -7.81127885e-02  -4.38703634e-02   2.23423839e-02  -2.39417814e-02
   3.70017812e-02   1.02921939e-02  -5.38918702e-03  -5.02359308e-02
  -6.13710769e-02  -5.34191467e-02   7.22152963e-02   3.12368441e-02
   3.35546210e-02   2.82569043e-03  -2.82107852e-02   2.21913233e-02
   4.72966069e-03   4.60908152e-02   6.54065162e-02   1.28308684e-03
   4.87499312e-02  -5.19277900e-02   4.86733764e-03  -7.10902065e-02
   5.12066260e-02  -5.71738183e-02   6.04970343e-02  -3.13429870e-02
   6.31611869e-02  -6.71874806e-02   3.54112349e-02   3.58312838e-02
   7.76243582e-03   1.73928365e-02  -7.68568134e-03  -6.41534701e-02
  -5.68607524e-02  -3.82279977e-02  -6.78245276e-02  -4.34157774e-02
   1.01810612e-01   2.85217408e-02   9.75481570e-02  -2.52375118e-02
   4.16360982e-03  -4.43809386e-03  -8.29720274e-02   5.35803800e-03
  -5.52641079e-02   2.97729373e-02   3.58869955e-02  -3.62812728e-03
  -7.61367902e-02   1.08947158e-02   2.10857484e-02  -9.48883500e-03
   1.58962049e-02  -5.21264970e-02  -5.67915775e-02   5.60653247e-02
   1.78648382e-02   3.03328633e-02  -3.17840613e-02  -5.51316477e-02
   1.59781501e-02  -6.17350787e-02   6.44484127e-04  -6.75315782e-02
  -5.31981327e-03   1.68531071e-02   5.41917011e-02  -4.50494289e-02
  -1.15153613e-03   1.64340399e-02   2.11156737e-02   5.67536466e-02
   2.48347614e-02   8.25810283e-02  -1.42660057e-02   6.60098717e-02
  -3.90356593e-02  -4.81496602e-02  -4.99967597e-02   6.69677183e-02
  -2.52991952e-02  -3.95572335e-02  -2.28333455e-02   6.79858327e-02
   1.26835443e-02   8.48837122e-02  -4.27120440e-02  -4.21127246e-04
  -1.04984837e-02   8.58235061e-02   1.57156456e-02   1.74970463e-01
   7.29728490e-02   1.08375691e-01   1.93849117e-01   1.01322822e-01
   5.51740974e-02  -3.26980501e-02  -8.60789567e-02  -5.32521233e-02
  -2.05267061e-04   2.46850643e-02  -4.65199025e-03  -1.39349671e-02
   1.35212913e-02   7.94061795e-02   6.45758808e-02  -6.58123419e-02
   3.51458415e-03   1.02611303e-01   4.61564660e-02   1.46629363e-02
  -1.02607615e-01   3.53066847e-02  -8.82292315e-02   1.02960633e-03
  -1.66280940e-02   6.21807240e-02   5.98407388e-02   1.52908802e-01
   1.43682718e-01   2.29038790e-01   2.04101905e-01   2.28247076e-01
   2.66428798e-01   1.90660223e-01   9.67184305e-02  -3.22321802e-02
  -4.76234406e-02   6.17602728e-02  -2.29447633e-02  -7.63620958e-02
  -2.38972120e-02   4.16953564e-02   3.07409987e-02  -4.57850061e-02
   4.94404649e-03  -2.32679094e-03  -2.73551866e-02   1.73203479e-02
  -9.59568322e-02   2.52786875e-02  -2.00802535e-02   1.22966141e-01
   8.93859714e-02   1.35605529e-01   3.69845666e-02   1.92852005e-01
   1.66744605e-01   1.77963540e-01   8.22577477e-02   2.14610770e-01
   1.83256567e-01  -3.69982910e-03   8.16803891e-03  -1.83813293e-02
  -2.52516009e-02   3.58818844e-02  -5.10326102e-02   6.63141906e-02
   1.74359381e-02  -7.44233429e-02  -2.71980315e-02   1.13359059e-03
  -1.68814346e-01  -1.27571672e-01  -1.69062719e-01  -9.94202271e-02
   4.00112420e-02  -1.80677269e-02   3.23118865e-02  -1.99595056e-02
  -1.77721810e-02  -5.54061309e-02   2.43711367e-01   2.10510820e-01
   2.67304599e-01   8.54646638e-02   3.25450540e-01   9.48120430e-02
   7.16042370e-02   1.15475558e-01  -1.86067764e-02  -1.22918464e-01
  -1.61322579e-01  -2.78670471e-02  -5.55508817e-03  -4.10011485e-02
  -7.99285844e-02  -3.02113499e-02   3.65480445e-02   3.61632966e-02
  -9.53199789e-02  -1.37680084e-01  -1.60054229e-02  -7.69246668e-02
   7.36790225e-02  -5.57681993e-02  -3.79385985e-02  -6.94070235e-02
   4.98272888e-02   5.65253831e-02   1.84667811e-01  -5.02644628e-02
   1.35216311e-01   7.59088621e-02   5.88373318e-02   1.71772391e-02
   4.67707515e-02   7.83417001e-02   9.82176140e-02  -5.77999763e-02
  -5.44293784e-02   8.05413723e-02   8.72631557e-03   7.36654084e-03
  -5.98586835e-02   8.12660754e-02  -6.63421750e-02   1.86448582e-02
  -1.54682577e-01  -1.18403427e-01   4.46444787e-02  -7.69068226e-02
   8.29949379e-02   7.07409531e-02   3.29246670e-02  -8.20651054e-02
   1.99706736e-03  -1.78801976e-02  -1.81549266e-01  -3.43150981e-02
   1.07137747e-02   4.23530452e-02  -1.95219502e-01   6.11671396e-02
  -8.91273096e-02  -1.04570895e-01   4.45624851e-02   1.26095295e-01
   1.24363028e-01   3.30464505e-02   7.15341244e-04  -5.91507256e-02
   1.06397793e-02  -5.08754281e-03   3.81891951e-02  -5.44720776e-02
  -1.17033966e-01  -1.75519183e-01  -1.01176366e-01  -6.26862198e-02
   6.70671314e-02  -2.91520897e-02   1.84443314e-02   1.07444614e-01
   1.27217382e-01   6.65130317e-02   2.64027715e-03  -3.84554081e-02
   4.93814088e-02  -2.64202654e-02   9.22400057e-02   4.15691249e-02
  -2.79905908e-02   2.02093273e-02  -3.33082415e-02   1.39956608e-01
   1.16580188e-01   6.07049055e-02  -2.00338215e-02  -6.30569160e-02
   4.28053662e-02  -6.91093795e-04  -4.62652668e-02  -1.01584822e-01
  -1.30365063e-02  -1.49256304e-01  -6.03211038e-02  -5.45268767e-02
  -1.72712460e-01  -9.61972550e-02  -1.31140813e-01  -1.36122435e-01
  -8.89160410e-02   2.37626396e-02  -1.30689293e-01   1.67021842e-03
  -8.38683993e-02  -1.68593258e-01  -5.21542989e-02  -5.63252755e-02
  -1.03616782e-01   8.70656280e-04  -1.43458024e-01  -1.65221002e-02
   3.40957940e-02   7.30649829e-02   6.98444620e-02   6.81790635e-02
  -3.19377556e-02  -2.12962702e-02  -4.27832939e-02  -1.35229994e-02
  -5.57479449e-02  -2.73501217e-01   1.68162975e-02   2.69786697e-02
  -7.31372088e-02   3.99744101e-02  -8.51733759e-02  -2.20436156e-02
  -6.11838326e-03   1.12480313e-01   3.61571927e-03  -8.62789825e-02
  -1.09727800e-01   4.73318845e-02  -8.67843442e-03  -1.73416883e-02
  -4.86839116e-02   1.23098657e-01  -1.41651392e-01  -1.18264286e-02
  -6.67014420e-02  -5.46102338e-02   4.55648340e-02  -6.73093647e-02
  -7.19087794e-02  -6.39097542e-02   6.61913157e-02  -8.33526254e-03
  -6.67338371e-02  -3.01532179e-01  -1.24401115e-01   5.37998043e-02
   6.84877709e-02   1.56994775e-01  -2.17983305e-01  -3.15375924e-02
   7.59411827e-02  -3.94950919e-02  -7.38538578e-02  -1.00474298e-01
  -2.89287657e-01  -5.60433790e-02  -8.09574872e-02  -1.78902522e-01
  -1.30436987e-01  -6.72632307e-02  -7.26028979e-02  -2.33036399e-01
  -1.22051910e-01  -2.43919250e-03  -1.50377648e-02   2.17742845e-02
  -7.27947280e-02  -8.09521005e-02  -7.58577809e-02  -3.03603653e-02
  -5.33238947e-02  -2.02881038e-01  -1.02254398e-01   5.44613749e-02
   2.95335613e-03  -1.36726767e-01  -3.07443198e-02   1.12328838e-04
  -2.09172182e-02   1.05400614e-01   2.68154815e-02   1.90561935e-02
  -8.07222053e-02  -1.27385274e-01  -1.69882059e-01  -3.25781047e-01
  -3.72139812e-02  -8.01431388e-02  -1.98339835e-01  -1.40401676e-01
  -4.84246807e-03  -7.32462555e-02   2.37143524e-02  -5.26013896e-02
   5.69801545e-03   8.01258087e-02   2.34757140e-02   4.38371859e-03
  -1.39134333e-01  -3.33684776e-03  -9.77503252e-04   1.68220416e-01
   9.05875936e-02  -2.86219362e-02  -3.38452011e-02   1.17050454e-01
   8.68478194e-02   5.03382236e-02   3.27649862e-02  -1.18870728e-01
   8.32612999e-03  -1.84064001e-01  -1.17492147e-01  -2.79755265e-01
  -7.15137124e-02  -2.84015741e-02  -1.18231595e-01  -3.66714001e-02
  -5.17941043e-02  -6.24005012e-02  -1.55679761e-02  -6.00700192e-02
  -7.69949406e-02  -6.13382123e-02  -5.18672504e-02   4.01605293e-02
  -8.16253498e-02   1.60779413e-02   2.55981721e-02   4.18704823e-02
  -5.71823353e-03   1.13444000e-01   1.30571455e-01   7.64710754e-02
   3.21566463e-02   4.11091112e-02   7.39759067e-03  -2.04377413e-01
   1.13778636e-02  -2.85209745e-01  -1.46930099e-01  -1.64038330e-01
  -1.22593485e-01  -1.45581052e-01  -9.18547288e-02  -4.97232713e-02
  -5.07584177e-02  -6.01648651e-02  -2.60400064e-02   7.07830414e-02
  -4.05895635e-02  -3.08140414e-03  -5.68299331e-02  -4.44518067e-02
  -6.90753087e-02   3.43476422e-02  -2.18892675e-02  -1.11673556e-01
  -1.07090257e-01  -1.72153115e-01   1.50383160e-01   1.06088966e-01
  -4.41273414e-02  -8.19612443e-02   1.17639214e-01  -1.75995767e-01
  -5.75508401e-02  -1.29602998e-01  -9.56664458e-02  -9.07647535e-02
  -3.94010590e-03  -1.13546113e-02  -1.31880134e-01  -7.34004900e-02
   4.19608690e-02  -5.29570170e-02  -5.91249019e-02  -6.62472993e-02
   1.77550465e-02  -5.09383790e-02  -7.68685620e-03   6.13679774e-02
   3.37656699e-02  -1.07107446e-01  -1.67642027e-01  -1.73231557e-01
  -2.11007908e-01  -6.18315749e-02   9.45928916e-02  -1.67229846e-02
   4.23889887e-03  -2.00924844e-01  -1.78033844e-01  -4.71428595e-02
  -4.73857019e-03  -1.33616373e-01  -1.43199459e-01  -2.59747598e-02
   6.26036152e-02  -2.31403112e-03  -8.96983519e-02  -1.50946692e-01
  -6.16930239e-02   6.39694333e-02  -9.21302363e-02  -4.82138507e-02
   1.88596696e-02   5.81286401e-02  -3.85966152e-02  -6.77849650e-02
   3.27778645e-02  -8.03128108e-02  -7.86971580e-03  -2.22254127e-01
  -1.22917384e-01  -2.04837531e-01  -1.04107805e-01  -2.82763034e-01
  -1.63575754e-01  -1.21590838e-01  -1.82585239e-01  -1.10224135e-01
   6.91666380e-02   1.34085137e-02   1.62278384e-01   1.67322814e-01
   1.41919926e-01   3.87500785e-02  -5.63906040e-04   7.41924793e-02
  -2.81984694e-02   7.74870291e-02  -2.99111083e-02   7.49385282e-02
  -2.09086314e-02  -7.44805336e-02   5.60598709e-02   4.64568026e-02
   1.51631271e-03  -3.70176951e-03   1.54273910e-02  -9.32635292e-02
  -1.30820135e-02  -2.31908057e-02  -1.29485413e-01  -1.17394477e-01
  -1.03827298e-01  -4.85420711e-02  -1.11864001e-01   8.67830366e-02
   1.66777387e-01   1.86953872e-01   2.49795750e-01   3.73165369e-01
   2.78578103e-01   1.45531699e-01   1.60687178e-01  -2.06576698e-02
   5.04793189e-02   4.69564646e-02   3.41390818e-02  -6.19999915e-02
   5.19458903e-03   3.39186601e-02  -4.58188318e-02  -5.75698121e-03
  -1.06414491e-02   7.26374090e-02   1.34893551e-01   1.62578046e-01
   9.59545374e-03   1.39671072e-01  -2.09684595e-02   1.38391584e-01
   1.45640686e-01   2.02078223e-01   3.59800279e-01   2.50828981e-01
   2.61867106e-01   2.77598768e-01   2.94588476e-01   3.91891569e-01
   4.59614396e-01   2.04896897e-01   4.47796583e-02   1.21986002e-01
   2.09900290e-02  -5.99921085e-02  -4.96032424e-02   5.35347313e-03
   2.20998786e-02   1.72382277e-02   3.85926850e-02   5.99504784e-02
   1.05998598e-01   1.95641622e-01   1.41629294e-01   1.23392828e-01
   1.37965366e-01   3.22843194e-01   3.17804009e-01   2.50372738e-01
   2.57198304e-01   2.93454140e-01   3.19431156e-01   3.38597000e-01
   2.31961802e-01   1.50110811e-01   2.13493496e-01   2.06118524e-01
   1.79671943e-01   4.03561927e-02   4.56270427e-02   5.33938445e-02
  -1.69197917e-02   2.76438072e-02   3.46147567e-02   6.95318356e-02
  -5.92949316e-02  -6.76379204e-02  -7.65249059e-02  -4.14067768e-02
   1.12344317e-01   8.48046839e-02   6.50687292e-02   1.75950855e-01
   2.31108055e-01   3.27422410e-01   3.32468987e-01   2.03043953e-01
   2.18211576e-01   1.64396435e-01   1.68209061e-01   3.03471714e-01
   3.09787959e-01   1.63762048e-01   6.84612021e-02   1.54398885e-02
   1.93491563e-01  -8.29033740e-03   6.46196678e-02   7.68050700e-02
  -3.17312591e-02   8.72828364e-02  -6.15937710e-02   1.36238337e-02
   7.61378333e-02   4.47365120e-02  -2.55856453e-03   1.81097463e-02
   2.09827572e-02  -2.40130741e-02  -1.17093427e-02   3.51510309e-02
   1.20997362e-01   2.42110357e-01   2.66589999e-01   1.63660079e-01
   2.96227992e-01   1.26996517e-01   9.17943791e-02   7.01694489e-02
   9.58874375e-02   7.06185624e-02   2.14456264e-02   9.44234878e-02
   6.61956370e-02   1.30557194e-01   7.09635690e-02   1.07821822e-02
  -3.03856917e-02   1.28459977e-02  -5.19357994e-02  -4.71224859e-02
   1.41543373e-02   5.49955294e-02  -1.97878964e-02   5.53702787e-02
  -2.80221105e-02  -1.48618091e-02  -9.16118845e-02   1.20462235e-02
   1.35066524e-01   1.64646432e-01  -5.14635295e-02  -2.77748965e-02
   6.64888602e-03   1.47573516e-01  -5.54633923e-02   2.48989109e-02
   1.06925227e-01  -1.19093852e-02   3.68944108e-02   1.24235950e-01
   1.01207443e-01   5.99421374e-02   8.24151933e-02   7.46090114e-02
   8.36664364e-02   2.86915489e-02  -7.90558979e-02  -7.12230951e-02
  -2.18816660e-02   2.84755975e-03   7.60594383e-02   7.58645907e-02
   6.31826837e-03  -2.20850352e-02   5.84102757e-02   2.76638493e-02
  -1.01818983e-02  -5.21238483e-02   6.76104501e-02   6.96183443e-02
  -1.89595167e-02   6.18472658e-02   3.31605785e-02  -2.45393403e-02
   4.65561971e-02   1.18096501e-01  -7.97188953e-02  -3.90813723e-02
  -5.29636927e-02   4.21360508e-02  -2.03295089e-02  -7.40252361e-02
  -4.23671976e-02  -3.45270187e-02  -7.18589723e-02  -2.14680582e-02
  -6.88061118e-02  -5.50985932e-02   6.64957985e-02  -3.31529230e-03
  -1.11207867e-03   8.26912224e-02  -2.89609749e-02  -3.68702114e-02
   1.43547151e-02  -6.65395856e-02   6.21364452e-02  -5.07589849e-03
  -2.87640234e-03   3.97472084e-02   3.27427797e-02   5.70210516e-02
  -4.68615927e-02   6.19391091e-02  -1.70225911e-02  -8.68245661e-02
  -4.12136130e-02   5.89856654e-02   5.35492562e-02   7.03705922e-02
   6.47599623e-02   1.41750127e-02   8.20188746e-02  -7.34959766e-02
   2.94862539e-02   6.21091798e-02   3.55221406e-02   2.51991674e-02
   4.95094582e-02  -5.48220761e-02   1.47501454e-02   4.23791260e-03
  -7.86492750e-02   9.80697572e-04   1.77820697e-02   4.03813273e-03
   3.48087400e-02   6.35719746e-02   6.19951636e-02  -2.87330821e-02
  -2.65184902e-02   3.27770039e-02  -7.26583302e-02   1.92562342e-02
  -5.07702902e-02   8.12379792e-02   2.53219828e-02  -6.83344603e-02
   1.07255355e-02  -2.39428356e-02  -4.28240038e-02  -2.11510286e-02
   1.39117241e-04   3.10459733e-03  -6.58391267e-02   2.22957954e-02
  -6.41820282e-02   2.70884205e-02   5.84050780e-03  -9.10616964e-02
   7.50731677e-02   1.24041541e-02   4.12684344e-02   5.50645888e-02
  -4.13972586e-02  -7.33989179e-02  -5.35334796e-02   8.87458585e-03
  -8.77826959e-02  -1.26348492e-02   3.26263160e-02   1.70998406e-02
   5.85235059e-02   7.76798353e-02   2.29501203e-02   3.30374762e-02
   7.23526403e-02  -2.94316672e-02  -3.31327356e-02   2.98856646e-02
  -7.26479441e-02   2.19633281e-02  -1.23247271e-02  -3.83532420e-02
   6.30254373e-02  -7.13063702e-02  -2.51579601e-02   7.40863103e-03
   6.45627081e-02  -3.98563854e-02  -7.37846643e-02  -6.86341897e-02
   7.47136697e-02  -5.43492250e-02   4.44886424e-02   2.39460487e-02
  -1.70828123e-02   5.81175983e-02   3.13058794e-02  -8.92150179e-02
   1.24381110e-02  -3.11964825e-02   2.43006982e-02  -7.68639445e-02
  -7.55892843e-02   7.68482834e-02   1.81218162e-02  -6.71026409e-02
  -4.51510213e-02   4.55503911e-03  -7.91056082e-02  -5.38241267e-02
   6.92173392e-02  -1.76468082e-02   5.92355058e-02   4.90830913e-02
   5.19164093e-02   1.48101235e-02   4.78125028e-02  -6.82450878e-03
   9.01568830e-02   2.83240573e-03  -5.04026040e-02  -6.56655356e-02
  -6.71874732e-02  -8.62979069e-02  -8.95299688e-02  -1.00613549e-01
  -6.97598383e-02  -5.09519912e-02   6.40905574e-02  -8.15472528e-02
  -7.05148429e-02  -4.05711979e-02   3.67977172e-02  -6.29881024e-02
   6.79518506e-02   1.79496333e-02  -3.08562666e-02   3.44768465e-02
  -1.85011812e-02   3.18518351e-03  -3.54167335e-02   1.02894560e-01
  -5.40169589e-02  -1.28170813e-03   4.80127297e-02   6.93664029e-02
   5.16703278e-02  -5.77920601e-02   1.20735066e-02   1.68348048e-02
   5.83971385e-03  -5.44347093e-02  -3.02210078e-02   4.28595254e-03
   5.78506999e-02   2.75487918e-02   7.71562383e-02   4.64802831e-02
   1.41757965e-01   2.27399375e-02  -4.02631462e-02   2.43605599e-02
  -7.77364224e-02  -3.59336063e-02  -8.63862596e-03   1.29786448e-03
   4.41758893e-02   8.64925515e-03   3.50093506e-02   8.44202470e-03
  -5.97348288e-02   1.64031219e-02  -6.86273798e-02  -9.27938372e-02
  -2.87376773e-02   3.43895331e-02  -6.46963194e-02  -1.20005906e-01
  -1.08474260e-02  -5.06730974e-02  -3.88970971e-03   1.06229194e-01
   4.46403287e-02   5.41488007e-02   1.25771105e-01   1.13573909e-01
   4.05903757e-02  -3.58970314e-02  -6.48169741e-02  -5.86387143e-02
  -4.36761118e-02   3.89651544e-02   1.68167539e-02  -7.65503421e-02
   4.58206050e-02  -2.08681133e-02  -1.30564589e-02  -4.27863933e-02
  -1.59059255e-03  -1.05241295e-02  -7.49061629e-02  -7.59385526e-02
  -4.99736257e-02  -3.87943983e-02  -1.32057488e-01   6.01289608e-02
  -3.15458304e-03   1.15633324e-01   1.32963017e-01   4.97213341e-02
   8.14554542e-02   3.21710482e-02  -4.65443321e-02   1.00895911e-01
   7.60801733e-02  -6.85222372e-02   4.13811617e-02   1.73403490e-02
   1.52390869e-02   9.17703286e-03  -3.91325615e-02   6.43578991e-02
   1.01120640e-02   1.03666551e-01   2.02195738e-02  -1.46400779e-01
  -8.37760642e-02  -2.22028494e-01  -1.11818284e-01   1.91681087e-02
   1.08545586e-01   4.75275418e-04  -5.96805997e-02  -7.93539286e-02
  -1.05968639e-01  -1.07100591e-01  -3.40451188e-02   5.86433932e-02
  -4.70372774e-02   1.41154025e-02  -1.33069642e-02  -9.37905535e-02
   5.05554751e-02  -2.39271782e-02  -4.13907431e-02  -4.99314629e-02
  -4.56617624e-02  -5.59762642e-02   5.40086515e-02   9.77294520e-03
   7.33902957e-03   2.71916389e-02  -1.48862705e-01  -2.74912417e-01
  -2.96913892e-01  -2.68407196e-01  -2.08365113e-01   1.03446320e-01
   2.61510890e-02  -9.71102435e-03  -3.65458541e-02  -5.78887761e-03
  -1.06969319e-01   5.85562140e-02   1.00312486e-01   6.29495904e-02
  -3.67679186e-02   1.03424810e-01   1.04177520e-01  -3.84847051e-03
  -4.61344570e-02   9.49484333e-02  -5.24850376e-02  -6.12004325e-02
   5.98042198e-02   7.15920627e-02  -8.99941847e-02   4.03880961e-02
   2.19061878e-02  -1.61802337e-01  -1.75607145e-01  -1.50266305e-01
  -2.13564962e-01  -5.92777692e-02  -8.16021636e-02   4.68330011e-02
   1.29662395e-01   2.00086221e-01   2.17757523e-01  -4.16515246e-02
  -1.67303592e-01   7.99813047e-02   1.64357841e-01   6.36413321e-02
  -2.49539446e-02   1.68046609e-01   1.10698931e-01  -7.92116970e-02
  -1.46756664e-01  -7.75580630e-02  -5.18997610e-02   3.36126871e-02
   7.48613104e-02  -1.42604187e-02  -5.73293306e-02  -7.33767971e-02
  -1.37141064e-01  -4.30558138e-02   3.91447777e-03  -1.19558677e-01
  -1.66356817e-01  -1.47994354e-01   3.55934687e-02   8.17091670e-03
   1.56837299e-01  -2.07512472e-02  -1.00912645e-01  -4.50829454e-02
  -2.94172049e-01  -1.50325835e-01  -1.44535601e-01  -1.76284164e-02
  -7.01539814e-02   2.81791985e-02   2.17689271e-03  -1.47403508e-01
  -8.36697295e-02  -1.65611450e-02  -1.60083715e-02   3.59430350e-02
   4.82510328e-02  -1.73570157e-03  -5.46674691e-02  -6.97584823e-02
  -1.47673845e-01  -5.44768460e-02  -5.26517350e-03  -1.71422184e-01
   5.55239059e-02   8.96991938e-02   5.06755635e-02  -9.20537934e-02
  -5.80820814e-02  -3.59447002e-01  -3.31539601e-01  -1.40618265e-01
   1.82865430e-02  -1.47829920e-01  -1.06176749e-01   2.31144279e-02
  -1.01179406e-02  -1.34607553e-01  -8.87037665e-02  -1.79514378e-01
  -8.60216022e-02   5.51016144e-02   4.28361222e-02  -6.08875677e-02
   6.23837439e-03  -1.91935804e-02  -7.28735402e-02  -1.46306291e-01
  -1.37017041e-01   1.97868571e-02  -3.41162384e-02  -7.61394277e-02
   6.17071912e-02  -7.64843002e-02  -5.56874052e-02  -1.51111126e-01
  -2.46250272e-01  -1.23907886e-01  -5.56650311e-02  -7.98672810e-02
  -1.21798553e-01  -1.91927060e-01   1.08558247e-02   1.81431383e-01
   9.26316231e-02   2.58170497e-02  -1.55850008e-01  -6.71410561e-02
  -4.79537323e-02   2.33204067e-02  -4.58324887e-02   6.49894103e-02
   7.86688998e-02  -2.93818093e-03  -3.11393589e-02  -7.02565163e-02
   1.06699862e-01   8.27496946e-02   2.65767742e-02   1.18245549e-01
   8.96162093e-02  -7.42921233e-02  -5.11000911e-03  -2.88063586e-02
  -1.04472660e-01  -1.29547464e-02  -6.78799814e-03   3.75317223e-02
  -1.78207114e-01   6.79340586e-02   1.27402142e-01   7.11238533e-02
   1.85944866e-02  -1.08472750e-01  -1.33465484e-01  -2.28163283e-02
  -1.56467631e-01   1.00118350e-02   4.19764183e-02   7.27011114e-02
   1.81319192e-02  -1.33558316e-02   4.93503548e-02   7.41216242e-02
   8.60634595e-02   5.47852777e-02   1.13267653e-01   2.33276546e-01
   1.03890345e-01   2.89904550e-02   1.30689992e-02  -6.83831349e-02
  -1.60446674e-01  -4.16390970e-02   1.02985993e-01   1.88733473e-01
   1.60187930e-01   1.26561448e-01  -4.29422073e-02  -3.15229334e-02
  -4.53870632e-02  -1.98938459e-01  -1.76602736e-01  -2.51360357e-01
  -5.77889557e-04  -1.95287995e-03   1.26421722e-02  -6.21624477e-02
  -3.39806192e-02  -1.60767715e-02   2.85763647e-02   1.08925678e-01
   1.68923557e-01   1.90978706e-01   1.79211840e-01   6.24251999e-02
   1.65557027e-01   1.78062901e-01   1.38840377e-01   2.75803823e-02
   1.14916369e-01   1.90768853e-01   6.78769797e-02   1.83067888e-01
   3.03054959e-01   6.12576343e-02  -2.42950115e-02   8.73001572e-03
  -1.18847050e-01  -1.00680120e-01   5.95708154e-02  -1.98177218e-01
  -1.07602939e-01   5.91931529e-02   2.09070579e-03   9.97476280e-03
  -6.91841841e-02  -7.22711459e-02   8.23508948e-02   5.22391908e-02
   9.01741087e-02   3.04800361e-01   2.61719912e-01   2.20150813e-01
   1.85080156e-01   1.00150622e-01   1.02507487e-01   3.37276846e-01
   2.57218271e-01   1.29127264e-01   6.57572225e-02   1.80599257e-01
   2.14647353e-01   2.24321947e-01   1.08564936e-01  -7.22999545e-03
   2.14130431e-02   6.94275945e-02  -9.81986374e-02  -1.52132347e-01
  -9.82995108e-02   8.08659568e-02   1.20777674e-01   6.28108606e-02
   6.26997724e-02  -1.02347415e-02  -2.34625973e-02   1.05488919e-01
   4.94978167e-02   1.98210701e-01   1.90801665e-01   3.24403435e-01
   2.86955357e-01   1.87359706e-01   8.14662799e-02   1.06754601e-01
   2.99257547e-01   1.36410326e-01   6.51727756e-03   1.25811264e-01
   1.70021310e-01   9.09926668e-02  -5.20477369e-02   3.23602855e-02
  -1.48563072e-01   2.67725755e-02  -9.10221562e-02  -1.40765294e-01
  -1.67100698e-01  -1.62745211e-02   1.13690473e-01  -2.05198359e-02
   8.02893788e-02  -1.73054282e-02   4.43201289e-02   1.15489237e-01
   1.26757607e-01   1.80258930e-01   2.65099317e-01   2.54371434e-01
   1.71625882e-01   3.54540646e-02  -1.27784824e-02   2.14336701e-02
   1.44798011e-01   5.64887226e-02   8.19827691e-02   8.57700929e-02
   6.80017918e-02  -6.71916604e-02  -4.02382612e-02   1.60475820e-01
  -1.13134123e-02  -4.45481529e-03   2.79284436e-02   1.31183118e-02
  -1.14631020e-01   5.85310860e-03   1.05453588e-01  -6.79261014e-02
  -2.12084278e-02   7.70403072e-02  -6.69737533e-02   6.43353909e-02
   1.18476905e-01   1.48888230e-01   5.65633401e-02   1.08953670e-01
  -5.30588739e-02  -1.19654104e-01  -2.05024496e-01  -1.27165064e-01
  -1.27022788e-01  -4.20573577e-02  -9.80304461e-03  -2.95736678e-02
   1.83504969e-01  -9.43863317e-02   3.72772329e-02   1.05668321e-01
   1.15890270e-02   1.61821634e-01   2.09546074e-01   1.39382228e-01
   6.24688603e-02  -8.90271273e-03   6.84129447e-02   2.77329935e-03
  -8.15604627e-02  -8.12976658e-02  -2.31785863e-03   1.19712971e-01
   8.81605446e-02   1.04558446e-01  -3.10131465e-03  -8.97239000e-02
  -6.44021928e-02  -1.64216608e-01  -2.90114224e-01  -2.13172317e-01
  -2.98510194e-01  -3.03863883e-01  -5.35720550e-02  -5.98225184e-02
   2.61903018e-01   9.40628126e-02   2.48177931e-01   1.62925988e-01
   1.18028909e-01   2.28939220e-01   2.46758744e-01   2.78702438e-01
   8.37997496e-02   3.23237255e-02  -1.85979865e-02   7.34073669e-02
  -7.92923495e-02   2.41117962e-02  -6.03123344e-02   5.19694351e-02
   1.20026991e-01  -2.76708789e-02  -6.64440393e-02  -1.43716499e-01
  -9.10782441e-02  -1.53733984e-01  -1.89238310e-01  -1.39825746e-01
  -1.52744010e-01  -2.50281580e-03   7.53084198e-02  -5.71835302e-02
   1.70597583e-02   1.42071620e-01   1.11654297e-01   1.10799022e-01
   1.66247934e-01   1.55244991e-01   1.25015453e-01   2.04540789e-01
   1.13114424e-01   7.82374367e-02  -1.47308456e-02   5.74498856e-03
   1.02330670e-02  -6.81685582e-02  -4.32706252e-02   2.42170524e-02
   7.65345469e-02  -1.46265581e-01  -1.25712991e-01  -1.60098612e-01
  -2.69243956e-01  -2.58020908e-01  -1.08777352e-01   2.81038564e-02
  -6.13304861e-02   9.83963907e-03  -7.73006082e-02  -1.41874060e-01
   6.82158303e-03   6.20171688e-02  -2.98892409e-02  -1.92038994e-02
   1.49103925e-01   1.52925894e-01   2.71209747e-01   1.60036653e-01
   8.33731368e-02   3.45401578e-02  -5.00934075e-05  -7.81484470e-02
   1.02235228e-02   4.01152298e-02  -3.85703370e-02   3.96757299e-04
  -1.63265411e-02  -6.80756494e-02  -1.33225739e-01  -1.49081305e-01
  -1.84981480e-01  -1.27429679e-01  -5.24382964e-02  -3.39519121e-02
  -9.27787423e-02   7.44558722e-02   7.08547905e-02  -4.39225100e-02
  -2.14646980e-01  -1.71161860e-01  -4.20749225e-02   6.98417798e-02
   8.79202932e-02   1.86454952e-01   1.97492227e-01   6.26835003e-02
   6.66019619e-02  -7.29571879e-02  -5.65805994e-02  -1.95992738e-02
   5.90062067e-02  -6.28047213e-02   6.55997619e-02  -7.25481892e-03
  -2.55818013e-02  -2.63895858e-02  -3.37452963e-02  -3.97670195e-02
  -9.20107402e-03  -4.17613871e-02   2.16245744e-02   1.25355870e-01
  -2.13983115e-02  -1.11951023e-01   2.64299382e-02  -5.92511380e-03
  -9.17070881e-02  -2.99613234e-02  -3.00940629e-02   1.44284040e-01
   2.05949515e-01   1.78530276e-01   6.27650917e-02   8.22650269e-02
   4.52171899e-02   8.37683976e-02   8.42071474e-02  -1.17279515e-02
  -6.27203286e-03   7.16158971e-02   7.08007589e-02  -6.68259785e-02
  -6.16540909e-02  -7.52014853e-03   1.28362685e-01   1.70434311e-01
   8.88459459e-02   7.43872970e-02   5.26659079e-02   1.15586370e-01
  -9.23581608e-03   7.89869875e-02   1.01385854e-01   5.99921867e-02
   1.15241716e-03   7.67139811e-03   2.87492964e-02   6.40943227e-03
   4.60947910e-03   9.37163830e-02   9.47177410e-02  -2.44932286e-02
  -3.04215606e-02  -7.23296851e-02  -4.72683981e-02   7.74761960e-02
  -2.55922005e-02   7.88181946e-02  -2.88084038e-02  -7.06072003e-02
   5.44514097e-02  -1.35591384e-02   1.14620253e-01   4.41165157e-02
   9.05462354e-02  -3.04961447e-02  -6.60023317e-02   2.68963668e-02
   1.14323221e-01  -3.68173979e-02   9.39036012e-02  -7.61121465e-03
  -3.47389020e-02  -2.36026999e-02  -2.65261903e-02  -1.22553587e-01
   8.00044313e-02   1.06128857e-01  -6.76350892e-02  -1.50302146e-02
   5.32149374e-02   2.47409344e-02  -6.71384186e-02  -6.34802431e-02
   5.04288748e-02   6.94933459e-02  -5.44606075e-02   7.42018744e-02
   1.90938935e-02   5.79844788e-02  -2.56228447e-02   2.79495455e-02
  -2.78041344e-02  -7.23198205e-02  -4.00873311e-02  -1.10469023e-02
  -2.43080854e-02   6.46794215e-02  -7.06434473e-02  -7.79600069e-02
   6.77248184e-03   4.97691073e-02  -5.24632819e-02   5.48450239e-02
   7.17647746e-02  -1.22259208e-03  -3.55322771e-02   9.28383507e-03
   6.18769005e-02   7.79712275e-02   2.33307630e-02   2.42993683e-02
  -6.06961176e-02   2.51465812e-02  -4.17714305e-02   4.53877226e-02
  -8.11604559e-02   7.71836266e-02   6.29822984e-02   8.26768801e-02
  -5.93729839e-02  -1.11300573e-02  -3.79443765e-02   1.79802924e-02
  -3.03916782e-02   1.82847790e-02  -8.30291584e-02  -6.66882247e-02
   6.34179190e-02  -2.43875496e-02   6.20444193e-02  -7.68047348e-02
  -7.79740289e-02  -1.81168020e-02   5.72536215e-02   4.54714373e-02
   2.45811790e-02  -1.18256807e-02  -1.08574778e-02  -7.27488771e-02
  -1.47803873e-02   6.03629276e-02  -5.31758592e-02  -8.11840594e-02
  -2.79010050e-02   3.12149972e-02  -1.39010847e-02   3.07537299e-02
  -3.01594585e-02   2.88276579e-02  -3.30277835e-03  -7.24668149e-04
  -5.17839752e-02  -1.22579476e-02  -5.13248965e-02  -2.74064168e-02
  -7.95076229e-03  -3.42211872e-02  -2.01425627e-02   4.29163463e-02
  -1.16055494e-03   6.97685108e-02   3.44222747e-02  -1.56402662e-02
  -3.38616669e-02   1.47890747e-02  -1.92156211e-02  -2.03582048e-02
  -3.08709964e-02   1.38438120e-02   7.72529021e-02   3.62452120e-03
   2.05456186e-02   1.72624756e-02  -4.48605642e-02   4.36290205e-02
   6.64467961e-02   1.68176070e-02  -7.42116421e-02   7.32585117e-02
   7.10624158e-02  -7.24140331e-02  -4.30828780e-02  -4.83701117e-02
   1.53378472e-02   7.07095414e-02   3.54186371e-02  -1.80362947e-02
  -3.41004170e-02  -1.73853021e-02   1.12649724e-02   4.07404592e-03
   6.95093051e-02   6.90077618e-02   1.06194615e-02  -6.36780635e-02
  -8.05517510e-02   7.53997937e-02   3.99023890e-02  -7.15435296e-02
   1.36762485e-02   7.33608454e-02   6.70494214e-02  -9.47423745e-03
  -5.79436570e-02   5.28875254e-02   5.60452193e-02   2.85692494e-02
  -2.52504554e-02   3.67731461e-03   1.92418415e-02  -9.47899371e-02
  -1.18537731e-01  -9.08541083e-02  -2.41493862e-02  -5.17742410e-02
  -3.37380334e-03  -7.68887475e-02   5.46960942e-02  -5.09254932e-02
  -5.80152199e-02   2.60676071e-02  -3.63451964e-03   2.51109228e-02
   4.94013950e-02   5.99893555e-02   2.84729842e-02   6.47234684e-03
  -6.66577071e-02  -6.10125810e-03  -7.89325088e-02   1.77038610e-02
  -5.04512116e-02  -4.04458530e-02   1.87700782e-02  -3.05719655e-02
  -5.68248555e-02  -7.21137002e-02  -9.01033133e-02  -3.41321230e-02
   4.93354425e-02   6.48972616e-02   8.57841671e-02   9.32308882e-02
   6.32115081e-02   6.50738850e-02   1.71115808e-02   3.13232504e-02
  -7.36657456e-02  -1.05396919e-02  -1.91053096e-02  -7.88799003e-02
   3.50078568e-02  -7.51459301e-02  -2.77512111e-02   2.56182253e-03
  -1.60657559e-02  -3.56029831e-02  -8.71313661e-02   4.05033752e-02
  -2.52249856e-02  -7.34714791e-02  -5.81085049e-02  -5.22794239e-02
  -7.69195706e-02   9.60807875e-03  -1.22592123e-02  -3.43902558e-02
  -9.43358690e-02  -3.49139795e-02   2.59809345e-02   3.41196954e-02
  -4.14086320e-02  -5.09771146e-02  -4.43152823e-02   8.10538139e-03
   3.07424683e-02   6.67638481e-02   7.34201595e-02   9.63327568e-03
   4.38272282e-02   4.47883420e-02  -6.02782378e-03  -2.66449507e-02
  -3.93942967e-02   5.45839667e-02  -2.55897660e-02   5.36129400e-02
   4.12248671e-02  -8.65138397e-02   7.27106780e-02  -4.66962419e-02
  -9.10946354e-03   4.49814834e-02  -1.50031373e-02   6.33231178e-02
  -5.80313951e-02   9.96170472e-03   8.19479004e-02   1.52012985e-02
   1.12159364e-01  -1.81277730e-02  -3.56440172e-02  -4.67737094e-02
   4.22812589e-02   5.06473966e-02   6.96607232e-02   4.99840938e-02
  -2.54156180e-02  -1.90999340e-02  -8.61272775e-03   4.41657044e-02
   2.88734101e-02  -5.78831173e-02  -1.67229790e-02   2.50192620e-02
  -5.22350259e-02  -7.36688673e-02  -5.35064302e-02  -3.25735919e-02
   5.67181371e-02   1.26100164e-02   6.32584393e-02  -3.09272259e-02
  -4.87825181e-03   1.23938089e-02  -6.05604090e-02   8.37422609e-02
   9.74629223e-02   6.11161022e-03   9.37692225e-02   1.08960651e-01
   6.22435510e-02   9.21902247e-03   5.41138761e-02   6.81745335e-02
   2.06208229e-02  -6.36228770e-02   3.32441777e-02   1.64554443e-03
   6.52499497e-02  -3.99617441e-02   2.98008183e-03   8.46091211e-02
  -6.23936243e-02   5.91672063e-02   1.20554166e-02   3.95676531e-02
   3.46913189e-02   1.22325832e-03   8.92716497e-02  -3.32548991e-02
  -5.70496805e-02   4.31492403e-02  -7.60039389e-02  -4.73734103e-02
  -7.28695840e-02   8.59235525e-02   8.11512545e-02  -4.60717231e-02
  -1.75262373e-02  -4.50175628e-02  -3.71312047e-03   5.39973788e-02
   5.59465513e-02  -7.75903091e-02  -6.44052029e-02   3.05411424e-02
   3.30510847e-02  -7.67649943e-03  -6.63733482e-02   5.68866320e-02
   2.34489851e-02   6.42025545e-02  -8.55699778e-02   5.83142042e-02
  -9.60181206e-02  -9.27365050e-02  -1.32381469e-01   4.38821055e-02
   3.79514694e-02   7.25427270e-02  -4.83423322e-02  -4.60910164e-02
   7.31394440e-02   5.59950769e-02  -2.22195946e-02  -1.23308385e-02
   6.78166524e-02   7.34386519e-02   6.12627482e-03  -1.95408277e-02
   1.92424804e-02  -4.24750447e-02  -2.15301495e-02  -1.41032906e-02
   3.63655165e-02  -6.86381161e-02  -5.74733391e-02  -8.24005622e-03
  -9.09063593e-02  -4.15165350e-02   5.03324158e-02  -6.95589036e-02
  -6.08301684e-02  -1.49702206e-01  -4.73020747e-02  -2.73883459e-04
   6.16493635e-02  -3.06860451e-02  -8.84515345e-02   1.93261728e-03
   1.19397812e-01   9.03866068e-02   9.46825743e-02   2.46897526e-03
  -5.42089343e-02   4.17784601e-03   1.40018398e-02  -3.29931229e-02
  -4.70170788e-02   6.57181889e-02   7.88230449e-02  -7.06188381e-04
   6.38076514e-02   7.28579462e-02   3.52373370e-03   2.62899026e-02
   2.09404454e-02   6.70912862e-02   4.85859923e-02   3.85314301e-02
  -1.01314247e-01  -9.89250094e-02  -4.43476364e-02   1.41167734e-02
  -5.22425473e-02   1.55272966e-04  -1.18384920e-02   1.27822263e-02
   8.94899368e-02   3.01075708e-02   4.94556595e-03   1.72717702e-02
   4.05265093e-02  -6.92026466e-02   1.67797580e-02   6.25048280e-02
  -2.31462978e-02  -3.74533422e-02   6.55532628e-02   1.26293050e-02
   3.50870900e-02   7.66269565e-02  -5.44297397e-02  -8.32169950e-02
  -5.10077477e-02   4.88906242e-02  -1.67712383e-02   1.01599626e-01
   3.74476910e-02  -9.40011442e-02  -3.60740232e-04  -1.03168935e-01
  -9.53430608e-02   2.09790673e-02   6.83427900e-02   8.08916241e-02
   1.92374319e-01   7.57139027e-02  -3.82673889e-02   8.85463730e-02
  -9.03403834e-02  -6.17667586e-02   5.32000698e-03   5.55367470e-02
  -6.63222149e-02   1.68093499e-02   3.89124267e-03   3.40046510e-02
   3.56115662e-02  -3.09198126e-02  -6.14029765e-02  -7.53317848e-02
   7.70817250e-02  -1.60900820e-02   3.22339088e-02   9.78561714e-02
   1.20852306e-01  -4.59189415e-02   7.56940395e-02   2.11768504e-03
   3.59840915e-02   1.19574135e-02   1.27243474e-01   1.35864824e-01
   1.02303460e-01   1.26719892e-01  -2.67325174e-02  -7.27885729e-03
   6.07954822e-02   7.66540468e-02  -3.72601300e-02   4.34703752e-02
  -2.77293585e-02   3.36388797e-02  -7.86561221e-02   7.75811374e-02
  -5.36474437e-02   2.17558425e-02   8.16994812e-03  -1.06863841e-01
  -6.74283206e-02  -9.72905457e-02   2.04107054e-02  -2.21420806e-02
   7.28642568e-02   1.75898910e-01   1.22927532e-01   6.91722753e-03
  -5.11761904e-02   5.71462028e-02   5.61419800e-02   1.16276436e-01
   2.78021060e-02  -3.33090611e-02  -7.32484385e-02   6.83664009e-02
  -8.55875239e-02  -4.62566204e-02   7.50682205e-02  -1.32377353e-02
  -7.36113787e-02   8.12574029e-02  -2.86761182e-03   5.22375330e-02
   3.49017642e-02  -3.99279818e-02  -4.14964743e-03  -1.40982836e-01
  -1.60485968e-01  -1.23206504e-01  -1.26787677e-01   1.16685614e-01
   1.98608220e-01   2.43757978e-01   2.25101598e-02   3.51336449e-02
   1.41092777e-01  -4.17415332e-03  -4.39095534e-02  -8.94834101e-03
   2.88540553e-02   5.28417714e-03   3.04765720e-02  -1.15323765e-02
   9.94891115e-03   3.91144194e-02   1.32126687e-02  -7.68152401e-02
   6.55307695e-02  -3.20166610e-02   3.73511948e-02   9.72653180e-03
  -7.07961172e-02  -4.17728387e-02  -1.66409668e-02  -1.90686993e-02
  -9.30209234e-02  -1.41172841e-01   2.77009699e-02   1.10027567e-01
   1.59898892e-01   2.18864188e-01   2.18685047e-04   1.49744125e-02
  -4.90660481e-02  -1.46924034e-02   4.38123606e-02  -8.71118009e-02
  -3.77282575e-02  -7.73638636e-02  -5.32818325e-02  -5.45268357e-02
  -4.70736064e-02  -1.77190080e-02   2.45251190e-02  -1.04108145e-02
   7.48170689e-02   4.71505485e-02  -1.12337414e-02   4.26714607e-02
  -5.68789057e-02   1.91273913e-02  -1.49214808e-02  -1.30798807e-02
  -1.09577119e-01  -1.87809467e-02  -7.74044096e-02   1.38473094e-01
   1.30261034e-01   4.67474759e-02   4.84558418e-02  -1.24205314e-02
  -1.36542190e-02   8.90687853e-03  -8.88511240e-02   6.10915385e-02
  -4.99530789e-03  -8.36140066e-02   1.95013396e-02   4.22479250e-02
  -1.07074091e-02   2.85003427e-02   8.22399631e-02  -1.60146672e-02
   1.83387157e-02  -1.51975127e-02   6.11897074e-02  -4.94153202e-02
   3.16074826e-02  -9.08525512e-02  -1.13550596e-01  -1.70113984e-02
  -2.68213935e-02   4.94759604e-02   3.97946760e-02   2.64396705e-02
   2.43775621e-02  -4.46002968e-02  -1.02901220e-01  -7.40135238e-02
   1.38941705e-02  -5.46495505e-02  -2.41619088e-02  -9.74644870e-02
  -3.78334820e-02  -1.29094854e-01  -9.27096456e-02   5.20033166e-02
  -5.22116385e-02   1.74101461e-02   5.34889847e-02   8.16041902e-02
   3.86359096e-02   5.70569076e-02  -5.68462647e-02   6.84519336e-02
  -1.55132441e-02  -7.22220466e-02  -4.20031510e-02  -1.77067947e-02
   2.74227876e-02  -2.15817839e-02   3.88220400e-02  -1.64167825e-02
   5.02997860e-02   2.20971648e-02  -9.92166847e-02  -6.76156282e-02
  -1.59007199e-02  -3.77493701e-03   4.73702326e-02  -5.12783788e-02
  -9.36185420e-02  -7.43700750e-03  -4.85461690e-02  -6.37649521e-02
   1.03542497e-02  -6.33172318e-02   2.28368156e-02   1.11072380e-02
   3.96790355e-02   7.37590268e-02  -7.35326633e-02   4.98799905e-02
  -1.83130568e-03   1.13575131e-01   4.44900244e-02   8.86854753e-02
   1.24031631e-02  -1.09152369e-01  -4.76346947e-02   1.13598760e-02
   6.43640012e-02   2.58334428e-02  -1.06024757e-01  -3.31558883e-02
  -1.43601045e-01  -8.73977095e-02   1.72050186e-02   3.88998762e-02
  -7.11911172e-02   7.46854097e-02   3.88600975e-02  -4.43357565e-02
  -1.56728248e-03  -2.99689472e-02  -6.91947266e-02   2.91847344e-02
   1.04114935e-02   7.63701322e-03   9.09869745e-03   4.27490100e-02
  -5.56776002e-02  -3.14426981e-02   3.30424383e-02   3.71873379e-02
  -2.63769496e-02   9.51282829e-02   1.25226676e-01  -7.75511842e-03
   8.39002803e-02  -1.69123970e-02  -1.73434690e-01  -5.58666550e-02
  -2.17477888e-01  -1.89421773e-01   2.67828386e-02  -7.98612460e-02
  -5.83863817e-02  -1.34212500e-03  -1.78402532e-02  -2.02897508e-02
  -2.06835549e-02   1.80614013e-02  -3.07297129e-02  -4.47289497e-02
   1.25312991e-02   7.33112078e-03  -1.28961597e-02  -7.05139562e-02
  -7.20990077e-02   7.65219107e-02  -3.12720723e-02  -2.17530206e-02
   2.44130231e-02   8.29089358e-02   5.53095415e-02   2.34749801e-02
   4.05432051e-03  -4.13064361e-02  -4.09965105e-02  -1.52304113e-01
  -2.01560467e-01  -1.28420636e-01  -1.09100454e-01   5.61815798e-02
   5.10336682e-02   6.89770654e-03  -2.00036615e-02  -3.67320403e-02
   3.10583808e-03   1.78794656e-02   7.75048956e-02   4.93431836e-03
  -2.20011920e-02   2.28214711e-02   6.06045425e-02   4.35458459e-02
  -5.31227849e-02   1.62730012e-02  -6.06249161e-02  -2.85600312e-02
   1.34831155e-02   6.91677257e-02   1.41547948e-01   1.03736810e-01
   1.03610516e-01   8.57599676e-02   3.91383395e-02  -4.59600836e-02
  -7.72612095e-02  -1.22775517e-01   1.18660396e-02   3.71331908e-02
  -6.62359456e-03  -3.53368297e-02  -8.51936638e-02   4.91513088e-02
  -9.87832807e-03   1.82523243e-02   1.91188902e-02  -5.52335791e-02
  -6.68137074e-02   5.47044203e-02  -7.85915405e-02  -1.91576816e-02
   5.93092665e-02   8.11664909e-02  -5.52082341e-03  -2.48252396e-02
   4.79362644e-02  -2.57260222e-02  -4.51229103e-02   6.00990318e-02
   9.29969102e-02   3.20767425e-02   7.90081769e-02  -5.01041673e-02
  -6.24093041e-03  -7.60187730e-02   4.08352241e-02   6.97829351e-02
   8.02119747e-02  -2.05688626e-02  -2.35694777e-02  -3.95216234e-02
   4.69349027e-02  -7.87197426e-02   6.30320609e-02   8.11263993e-02
  -8.52909684e-03   1.61030591e-02  -7.24775493e-02  -7.75769278e-02
  -5.24127744e-02   4.23752666e-02  -4.61012125e-02   8.49576816e-02
   6.69618621e-02  -1.46816336e-02  -5.74804917e-02   2.40236055e-02
   3.68882380e-02  -6.10289797e-02  -9.33508947e-02  -1.33032382e-01
  -1.10846259e-01   1.17404703e-02   1.40662596e-03  -3.78725752e-02
  -1.98461805e-02   3.24730538e-02   8.19543675e-02   2.11740583e-02
   6.38616011e-02  -2.13547666e-02   4.78511229e-02   8.29289779e-02
   5.25065735e-02   6.77190721e-04  -2.57425010e-04  -7.26799741e-02
   4.00262363e-02   3.92589197e-02   5.35610765e-02   9.32732299e-02
   6.46388754e-02  -4.15022075e-02  -6.93994239e-02  -3.05506643e-02
   2.69658417e-02   1.50131853e-02  -1.91744361e-02   6.12249151e-02
  -3.45615409e-02  -6.12611137e-02  -3.53203677e-02   7.58715123e-02
   3.04683540e-02   4.40211408e-02   3.79284024e-02  -6.64727911e-02
  -3.36729065e-02   9.30785481e-03   6.30088821e-02  -4.72757444e-02
   5.62874600e-02  -3.77960913e-02  -7.79197589e-02   2.58211046e-02
   7.08199367e-02   5.10272607e-02   1.88474841e-02  -2.48585213e-02
  -4.32364456e-02   3.16751413e-02   6.29473850e-02   5.95458448e-02
  -7.54545182e-02  -5.63021787e-02   1.75530568e-03   2.21994761e-02
   1.64565742e-02  -6.58121035e-02   7.02483952e-03   1.33028561e-02
  -1.19917616e-02  -7.20211491e-02   7.39331320e-02  -5.49894720e-02
   4.85648289e-02  -4.39877436e-02   3.83672118e-03  -5.06276600e-02
   7.71639422e-02  -6.79614618e-02   4.98063862e-04   6.88438788e-02
   2.71988511e-02   4.33324501e-02  -4.91211228e-02   2.09425017e-02
   5.63719645e-02  -4.28826436e-02   7.99260214e-02  -7.81321600e-02
  -7.24005550e-02   7.56767252e-03   4.74044196e-02  -6.85171410e-02
   2.55811885e-02  -3.79804969e-02  -4.87471223e-02  -4.24557403e-02
  -5.19835427e-02  -4.23301570e-02   3.01370770e-02  -2.53428780e-02
   3.90688255e-02  -5.65211549e-02  -8.32888484e-02   1.57786906e-03
  -5.52868843e-02  -8.17522705e-02  -4.15064655e-02  -2.63783075e-02
  -5.99754564e-02   3.49924155e-02   4.29845275e-03   3.47641557e-02
  -9.99146886e-03  -2.95455717e-02   6.85659945e-02  -1.52253453e-03
   8.55806842e-03   2.81592980e-02   1.68425646e-02  -7.10620135e-02
  -4.97689769e-02  -4.76367138e-02   5.32236286e-02   7.19417557e-02
   2.63032820e-02   5.15725054e-02   5.50040305e-02  -5.81465662e-02
   2.54822224e-02  -8.21112543e-02  -7.66402856e-02  -6.04732111e-02
  -3.78377661e-02  -1.61269456e-02  -3.53043266e-02  -6.06678762e-02
  -1.45025970e-02   3.27878520e-02   1.36176450e-02   8.26349109e-03
  -3.15951779e-02   2.31693499e-02  -1.70901734e-02  -5.26996180e-02
   5.01866005e-02  -4.89172898e-02  -6.41114265e-03   2.80063250e-04
   7.32981041e-03   1.91974733e-02   2.30066273e-02   4.60610762e-02
   9.32760835e-02   2.91648693e-02   4.18440141e-02   2.43875328e-02
  -1.01541383e-02   1.25307236e-02  -1.64511502e-02   3.17042917e-02
   7.46190026e-02   6.87203333e-02  -3.93685438e-02   3.75258550e-02
  -7.20019788e-02   4.66827936e-02   5.79453520e-02   9.05332062e-03
  -3.63424309e-02   8.98689255e-02   2.53930334e-02   8.15733150e-03
   2.86701489e-02  -1.83526408e-02  -1.39125496e-01  -1.30013600e-01
   1.92175545e-02  -7.66631737e-02   5.40167280e-02  -7.86342844e-02
  -3.67829576e-02  -6.88748609e-04   1.05759293e-01   6.45491555e-02
  -1.01928711e-02  -1.18003348e-02  -3.92948687e-02   3.26750651e-02
   5.93450889e-02   1.36418566e-02   6.05885647e-02  -6.08915836e-02
  -4.25854810e-02   6.13035783e-02  -4.20106836e-02  -9.70017072e-03
  -2.76471348e-03  -3.78830126e-03   7.96387047e-02  -6.67075366e-02
  -9.41377431e-02  -6.65770993e-02  -9.18076336e-02  -3.32627073e-02
   3.10736857e-02   1.08191602e-01  -3.90654877e-02   5.53469919e-02
   4.97997217e-02  -1.41255278e-02   8.30671471e-03  -9.56335217e-02
  -3.17032188e-02  -1.27380237e-01  -3.71283479e-02   2.84920298e-02
  -8.35729018e-02   7.70722702e-02  -5.85765056e-02  -1.11320419e-02
  -1.44761642e-02   5.04917018e-02  -4.21734564e-02   7.62051065e-03
   8.38723704e-02   1.37647256e-01   4.41491567e-02   1.10405035e-01
   8.82144794e-02   4.56147194e-02  -1.84256658e-02   1.00000650e-02
  -1.67369112e-01   5.68482056e-02   4.73122895e-02   1.31197289e-01
   6.81169778e-02   7.02322228e-03   3.88374962e-02  -7.11144283e-02
   6.81544608e-03   6.17616344e-03   7.69028766e-03   3.83712607e-03
   7.16917142e-02  -6.46269768e-02  -4.47473722e-03   6.46779165e-02
   6.35493621e-02  -1.50492610e-02   2.68231258e-02   7.06691295e-02
   4.30765487e-02  -5.25156297e-02  -4.46706600e-02   1.16544031e-01
   8.27569738e-02  -8.23543146e-02  -1.16616063e-01   2.21174117e-02
   3.38988774e-03  -1.51015043e-01  -3.59167857e-03   6.70844689e-02
   2.07857173e-02   1.30497545e-01   4.16890569e-02  -2.20833663e-02
  -1.10943712e-01  -7.03317076e-02  -5.07639833e-02   7.72412196e-02
   7.70290196e-03   5.02648838e-02  -3.22192088e-02   5.06283753e-02
   3.34463711e-03   4.10548896e-02  -1.53349368e-02  -8.18226337e-02
  -5.38282096e-02   5.92564344e-02  -6.67738020e-02   6.83852099e-03
  -5.67421913e-02   5.07384799e-02  -2.29318030e-02  -3.68802063e-02
   1.05652176e-02   2.51176488e-02   2.17221111e-01   1.26064532e-02
  -3.55165564e-02   1.13654379e-02   1.11556217e-01   2.50783917e-02
  -6.19488247e-02  -8.58454108e-02  -2.53569521e-02   2.73912046e-02
  -1.39267147e-02   6.19640201e-02   2.22853348e-02  -5.93187138e-02
  -4.14046496e-02  -8.19838420e-03   2.60803867e-02   8.88571329e-03
   8.90637636e-02   7.53606185e-02   3.38423289e-02  -6.46485835e-02
  -3.95099968e-02   1.53211594e-01   3.14010680e-02   3.10397358e-03
   1.59249052e-01   1.49125293e-01  -3.27438451e-02  -1.09320164e-01
  -7.28806481e-02   1.50818422e-01   3.09937038e-02   7.14154728e-03
  -1.36534035e-01  -7.12606236e-02   3.38762738e-02  -8.12966377e-03
  -3.48693803e-02   3.53890210e-02  -1.28750242e-02  -3.46447118e-02
   4.68938649e-02  -1.20410636e-01  -4.76503260e-02  -1.92647561e-01
  -1.02545448e-01   8.49090070e-02   1.11023267e-03  -1.14863075e-01
  -4.26699072e-02   1.73729852e-01  -7.63700297e-03  -2.69235820e-02
   7.48823807e-02  -1.06737949e-01  -1.02367580e-01   5.52080274e-02
   1.43194288e-01   1.11939877e-01  -2.70988587e-02   4.65841498e-03
  -5.08681647e-02  -1.51343346e-01  -6.07081838e-02   4.61420044e-02
  -3.85956466e-02   5.54048941e-02   1.35368239e-02  -4.74598110e-02
  -6.33861199e-02  -8.10382292e-02  -4.00981382e-02   7.67463520e-02
  -6.33171201e-02   1.65258303e-01  -2.20964495e-02  -8.17051008e-02
  -2.87582874e-02   9.51755978e-03  -6.06809147e-02  -1.12250783e-01
  -2.10503846e-01   2.95049082e-02  -3.37688834e-03  -2.20239330e-02
  -2.34109107e-02   6.70411959e-02   1.60732530e-02   7.06888512e-02
  -4.04289030e-02  -2.52641588e-01  -3.41428295e-02  -2.36874856e-02
